2206 100
mr -0.029569022 -0.019900676 0.03032647 0.03569153 0.0038636122 -0.01950346 0.0042921677 0.010918914 -0.034426384 0.002307847 -0.024530599 0.0020369294 0.012578622 0.040819746 -0.019511648 0.0156145645 0.062258225 -0.026140261 -0.019818917 0.008549321 -0.055388108 -0.0050977548 0.0058078617 -0.027274286 -0.01731131 -0.014727979 -0.027561484 0.031175153 -0.0067112194 0.002373424 -0.00038739885 -0.06015758 -0.0012821242 0.012626444 0.01897862 0.07052961 0.018331146 0.011172789 0.06822973 -0.009927709 -0.0045173108 0.042469904 -0.0125197675 0.01758744 0.010767063 0.026262658 -0.015520688 -0.0042280816 -0.06310693 0.008125683 -0.029288031 -0.014482906 0.016258791 -0.023577332 -0.0047324817 -0.013588498 0.0018161666 -0.013997776 0.0053295647 0.03404401 0.0032431 -0.0096971905 0.015357657 -0.02938075 0.0038868152 0.03390761 -0.012564197 0.02072883 -0.0116356015 -0.022613993 -0.01113679 -0.031450704 -0.0068092374 0.017453004 0.050205357 -0.03128662 -0.018215653 -0.029905625 -0.0020509057 0.0038083256 0.05505039 0.013624906 -0.00012577743 0.0557782 0.025611144 0.05043967 -0.014646155 -0.022690613 -0.0063606948 0.005588606 -0.008330419 -0.0070478627 0.030826433 -0.03330518 -0.020485025 -0.053560916 0.028037896 -0.019733105 0.009091558 0.012649824
emma -0.024448115 -0.015189166 0.014602426 0.026088133 0.0022032103 -0.0099092405 0.004286959 0.0036651494 -0.02158486 -0.00031076674 -0.021690525 0.008359288 0.008978975 0.029010637 -0.013697727 0.013159046 0.046341725 -0.019541591 -0.019499015 0.0077635422 -0.03333739 -0.004662197 0.0013409588 -0.017641934 -0.012845354 -0.0076982644 -0.020793451 0.023334403 -0.0046248767 -0.004307158 -0.00072706584 -0.039446782 -0.006711901 0.015039028 0.010273329 0.052021638 0.016096905 0.010306222 0.04804197 -0.001679464 -0.0035274746 0.035702273 -0.010267607 0.013608883 0.0060521 0.016818345 -0.0074932734 -0.005046847 -0.043172687 0.010673172 -0.015257903 -0.011618858 0.008068444 -0.017761447 -0.0042048986 -0.008986759 0.001432366 -0.00443265 0.0044933353 0.02622345 0.0012643917 -0.0026705812 0.008644825 -0.022566283 0.005088654 0.01592432 -0.0015508333 0.01952806 -0.009165155 -0.011822886 -0.0039944416 -0.023496546 -0.0043178466 0.012126651 0.025830034 -0.0127970725 -0.013462333 -0.020227032 -0.007556083 0.008533649 0.042077757 0.0101943845 -0.0027856936 0.03813121 0.018544272 0.029514369 -0.012435695 -0.018368298 -0.011133794 0.009947105 -0.011465228 -0.009120775 0.024002839 -0.023051312 -0.011552306 -0.038338568 0.018005835 -0.004813189 0.0004662256 0.007637677
could -0.025182074 -0.015037026 0.01581068 0.024895089 0.0075586196 -0.019116398 0.005691146 0.005918499 -0.029283842 0.001437339 -0.017649852 0.0053173862 0.014739088 0.03041875 -0.008904003 0.00811462 0.047212746 -0.021319699 -0.016483176 0.006589463 -0.044283498 -0.0030166798 0.00037221317 -0.020744134 -0.0105735725 -0.003305752 -0.01308821 0.025871446 -0.0007622065 0.0028858152 0.0001247571 -0.04418338 0.00034381117 0.013031104 0.009013493 0.046818033 0.011360594 0.008856782 0.048246667 -0.004742772 -0.0037611672 0.027599007 -0.012251698 0.01528615 0.0071107848 0.013851157 -0.011762888 0.0021586996 -0.04402368 0.0040489463 -0.01487855 -0.01676987 0.011101523 -0.014188252 0.0013669417 -0.012004641 0.0035068507 -0.011390708 8.01579e-05 0.026117269 0.0060233916 -0.0025907934 0.010793454 -0.014663932 0.0065319613 0.020196816 -0.0071952725 0.017579144 -0.012466105 -0.016560663 7.375245e-05 -0.021272946 -0.011799287 0.0083958665 0.027513497 -0.016910952 -0.014109529 -0.023461891 -0.0022101675 0.010470867 0.042007066 0.011143099 0.0029089611 0.032960627 0.015363015 0.03245885 -0.008403995 -0.019927813 -0.011457855 0.0046698186 -0.008551827 -0.011542596 0.016315263 -0.016350182 -0.015895111 -0.04090838 0.015872734 -0.010527001 0.0010017751 0.013373171
would -0.024389587 -0.020844715 0.023371069 0.019019993 0.0019705165 -0.016074885 0.005665682 0.0058426014 -0.022912797 0.0014113962 -0.019473376 0.008176374 0.0138454735 0.030022014 -0.008227395 0.014430528 0.044440355 -0.014714552 -0.02334182 0.001214184 -0.03818541 -0.008849942 0.002635867 -0.022480765 -0.01387149 -0.00689982 -0.022563744 0.023756895 -0.0013165938 -0.0029496606 -0.0026468274 -0.04099644 -0.0024490992 0.016555397 0.009114512 0.052057255 0.012164744 0.0071138735 0.052034847 -0.008872379 0.0033317918 0.03689287 -0.010199428 0.009374081 0.005300415 0.020817518 -0.01197346 0.0011295191 -0.04853445 0.009776014 -0.019288842 -0.012446528 0.006637176 -0.012723763 -0.0005912378 -0.01141009 0.005365227 -0.004133071 0.00032393046 0.026500292 0.0029814169 -0.010922221 0.015667045 -0.01597292 0.0020157318 0.02404434 -0.009584518 0.015881065 -0.0041725677 -0.01214689 -0.0014045507 -0.025295418 -0.012415766 0.007699445 0.032519236 -0.014573047 -0.015439113 -0.02585456 -0.0032844965 0.0021921638 0.04086433 0.011258358 -0.0028166291 0.043334384 0.012515892 0.03962968 -0.0069202944 -0.019264111 -0.004753244 0.008303446 -0.008408984 -0.009584548 0.017295983 -0.02573352 -0.021402052 -0.03922453 0.024327353 -0.0065385946 0.0074739032 0.0059577283
mrs -0.015066795 -0.009521711 0.008208041 0.014842983 0.0053706034 -0.012017379 0.0011169685 0.0014870216 -0.012103091 -0.0025837873 -0.012471117 -0.0024764927 0.0051912703 0.012967864 -0.007946781 0.008759259 0.022310581 -0.01050496 -0.00936376 -0.000686102 -0.021896757 -0.002211636 -0.0022428378 -0.007904987 -0.00753154 -0.006797824 -0.012393632 0.012261433 -0.0031851288 -0.0052081128 -0.0031309342 -0.01671995 0.0018683572 0.0015887121 0.0075985976 0.02374405 0.0025001639 -0.00023729044 0.023995109 0.0012546696 0.00040635216 0.014266847 -0.0018404907 0.003994878 0.008367422 0.00732208 -0.010731574 -0.00033145928 -0.021031138 0.005138517 -0.009095704 -0.005258516 0.004576151 -0.00807965 -0.0047432343 -0.0038184796 -0.0017203363 -0.0076150578 -0.003553804 0.016671123 -0.0011174316 0.00010991264 0.0109961135 -0.00510797 0.00075677974 0.012219379 -0.0014147788 0.0071204714 0.00093910855 -0.0084493905 -0.0005838213 -0.0058906437 -0.004263856 0.0056903004 0.013707879 -0.010130596 -0.0050141006 -0.0057228226 0.003190201 0.004012465 0.021804215 0.0055990326 -0.00071103545 0.017371668 0.013079651 0.016742963 -0.0066302647 -0.0055818474 0.0015026155 0.00556524 -0.0046737487 -0.003954161 0.01183047 -0.008986819 -0.007782237 -0.01970018 0.00627278 -0.0044977004 0.0031035822 -4.1079356e-06
miss -0.023836415 -0.010287481 0.022434944 0.020211486 0.008768417 -0.016282482 -0.0012288402 0.0055955085 -0.026138794 0.0017288151 -0.02080549 0.0056428467 0.014258002 0.025331376 -0.013438496 0.012066737 0.048768267 -0.016944813 -0.016807416 -0.0021617033 -0.042118337 -0.004997065 0.0058150813 -0.020959068 -0.0075108293 -0.005309993 -0.019510375 0.025949994 -0.004264299 -0.0015063403 -0.00083037646 -0.033180334 -0.0074712858 0.0073577105 0.008874973 0.049127847 0.018689776 0.008292482 0.044168048 -0.000305175 0.0029446513 0.03303286 -0.005776348 0.005876509 0.0028264741 0.021784049 -0.016480694 0.00210101 -0.04515809 0.0077519133 -0.018837988 -0.0073311958 0.0112848645 -0.015417682 -0.00023644677 -0.0152686685 0.0036100182 -0.005408634 -0.0027238375 0.028381616 0.009035491 -0.012164612 0.0132578965 -0.017102743 0.0025743195 0.01770083 -0.0055069183 0.016822064 -0.008339413 -0.009454382 0.0007784087 -0.019919282 -0.011334925 0.010114058 0.02684037 -0.01571612 -0.015484723 -0.01652151 -0.0019840265 0.0015429223 0.043382682 0.01030026 0.0025911382 0.030336276 0.02091383 0.039398964 -0.014716103 -0.019724356 -0.0059652505 0.010397238 -0.008779449 -0.010141421 0.019225884 -0.023090616 -0.02049168 -0.038429048 0.017342912 -0.010061676 0.007361839 0.010149898
must -0.023084082 -0.018132458 0.019244866 0.022769162 0.004029437 -0.015756283 0.005985968 0.004441079 -0.023167416 -0.004788691 -0.01846834 0.005694139 0.0054611377 0.022992015 -0.014465323 0.004503035 0.046587996 -0.017635286 -0.012294986 0.0063273665 -0.04021674 -0.006716196 -0.0020142735 -0.020524252 -0.016661657 -0.004881544 -0.018772898 0.02488579 -0.0011481966 -0.0048334505 0.00036074265 -0.041309275 -0.0019276972 0.005959823 0.008962918 0.041743748 0.015285725 0.011204622 0.042911988 -0.004166041 0.003782896 0.030601148 -0.005370878 0.01168437 0.00949645 0.018140605 -0.013662917 0.0006105552 -0.042201404 0.0021149197 -0.016547253 -0.0096505275 0.0040227408 -0.016947018 -0.0008036645 -0.01135696 0.003462661 -0.0020079126 0.0005624748 0.027762538 -9.556737e-05 -0.009949469 0.011652406 -0.013800111 0.007892915 0.018624034 -0.0052565737 0.0129281515 -0.010065911 -0.01375706 -0.0069225137 -0.021351935 -0.0074664904 0.0136974985 0.034305755 -0.017523628 -0.0064580785 -0.02087843 -0.0051838 0.0072056195 0.03349802 0.015640397 -0.0015710059 0.03708262 0.01286154 0.03466697 -0.01022335 -0.014967439 -0.0014987047 0.010863295 -0.0049802 -0.005302176 0.01581665 -0.02292723 -0.011066916 -0.03255887 0.01985824 -0.009065206 0.0022548717 0.011568652
harriet -0.029219752 -0.024330141 0.035539012 0.037542865 0.0011483491 -0.024993515 0.008699287 0.008970257 -0.034988377 -0.0053609503 -0.03526745 0.0024934213 0.019531168 0.040663242 -0.014580717 0.021267755 0.068468384 -0.029082898 -0.029431399 0.0036676344 -0.0660803 -0.010761775 0.0018031958 -0.026093788 -0.017989779 -0.007437918 -0.023865286 0.040786516 -0.0046340935 -0.005761241 0.0033583685 -0.06029549 -0.004023206 0.015889764 0.016308287 0.08102916 0.021805542 0.011266785 0.07605942 -0.009865333 -0.006995134 0.04527945 -0.015457227 0.014373727 0.008455697 0.030202746 -0.0134666525 0.0009810213 -0.07023702 0.013070627 -0.024614865 -0.015066292 0.010763742 -0.023633722 -0.007126466 -0.020700995 0.001153636 -0.014982315 -0.0023786675 0.04196439 0.007133039 -0.015977489 0.023806693 -0.028980182 0.003496139 0.034593396 -0.014368084 0.030429179 -0.015219673 -0.016525976 -0.0059042764 -0.034563575 -0.013773339 0.011209384 0.052186776 -0.025723396 -0.018607408 -0.030748757 -0.0045079966 0.013465966 0.065649346 0.016454162 -0.0009253548 0.058349703 0.028971186 0.059966788 -0.015277427 -0.028954616 -0.015078692 0.0113897305 -0.00698268 -0.015961183 0.029048564 -0.036423996 -0.020162113 -0.06529146 0.024662292 -0.017154034 0.00013613902 0.018194206
much -0.027038148 -0.013323359 0.025383098 0.023066053 0.0022209284 -0.021450212 0.009663734 0.008849379 -0.030401839 -1.7426944e-05 -0.01774507 0.004721707 0.011459268 0.024014194 -0.01381602 0.008430221 0.049314085 -0.022709586 -0.017074132 0.0053261966 -0.042967968 -0.005045585 0.00071415486 -0.0152814705 -0.010351025 -0.011632831 -0.0236657 0.02568852 -0.00079056405 -0.0018012497 -0.004342157 -0.04735071 -0.0060874834 0.0139238965 0.01609792 0.05503451 0.011695646 0.008489233 0.05252304 -0.0042357054 -0.00454731 0.035923395 -0.0076221796 0.014863253 0.010367628 0.023644978 -0.00801235 -0.00069078384 -0.043557476 0.010144781 -0.023937369 -0.014198106 0.011585739 -0.011999254 -0.0016914072 -0.009485788 0.00010494776 -0.01123692 0.004948497 0.03307557 0.008943597 -0.005990002 0.013593873 -0.01820217 0.009775258 0.020611139 -0.009928057 0.021056347 -0.007356288 -0.014009963 -0.0074877217 -0.0210367 -0.011946324 0.012497815 0.039528567 -0.019507034 -0.013650229 -0.024972826 -0.006756728 0.003963544 0.042225365 0.012040892 -0.0008337042 0.03919574 0.017530726 0.044112228 -0.012585577 -0.018866636 -0.003779138 0.010417631 -0.0047327224 -0.011285164 0.023866627 -0.021189207 -0.016609706 -0.039600436 0.015089264 -0.01572322 0.00012166438 0.005931684
said -0.015429398 -0.00768239 0.014482241 0.016368316 0.00032433396 -0.015171906 0.005944739 0.0051986286 -0.017075432 -0.0011564036 -0.016107207 -0.00028578282 0.010181607 0.021367436 -0.013251259 0.004359812 0.0405829 -0.011588799 -0.014074319 0.005120453 -0.029745469 -0.0063605905 0.0020433748 -0.016799306 -0.010509037 -0.0071735834 -0.009437539 0.024291884 -0.003556666 0.0002394068 0.0008487477 -0.035629325 -0.0012404943 0.0072885295 0.010226851 0.042536903 0.009333707 0.0057644793 0.03750206 -0.0031722577 0.00127059 0.023971416 -0.008604499 0.008092634 0.01059751 0.016945647 -0.011476399 -0.00041682777 -0.03512291 0.0019581816 -0.014871953 -0.0124512175 0.010375569 -0.009274423 -0.0062035564 -0.014197363 0.0015628015 -0.002120611 -0.002659689 0.017827615 0.0046456303 -0.010545247 0.009817507 -0.019978212 0.0022979164 0.015731337 -0.0032323506 0.0151929455 -0.0112490505 -0.014640024 -0.00820903 -0.017687844 -0.0056464383 0.010321504 0.030137219 -0.014184757 -0.0068806615 -0.017613268 -0.0023125394 0.0074027157 0.037791006 0.012902318 0.00091528054 0.026178213 0.008311731 0.03042628 -0.0037024703 -0.011097892 -0.0028486985 0.0026225722 -0.0073233354 -0.009101313 0.017888186 -0.015824579 -0.017045798 -0.03341982 0.016542863 -0.008264476 -0.001982057 0.01085683
one -0.023863783 -0.010232871 0.01800169 0.026142534 -0.0007094059 -0.014956888 0.006033997 0.013176291 -0.022597011 0.0032726086 -0.019125884 -0.0016144268 0.0077553024 0.021657847 -0.013171468 0.014705418 0.047324337 -0.015972756 -0.013699232 0.002577968 -0.041614838 -0.00577077 0.0055787186 -0.015163845 -0.010028009 -0.01139615 -0.02058216 0.022538295 -0.0035146053 0.0015564604 -0.004365002 -0.036756765 -0.0027884643 0.007096734 0.01400951 0.046685275 0.016506467 0.0076396633 0.03855914 -0.00096149096 -0.0022225562 0.02696809 -0.0073507726 0.0141693065 0.007406309 0.018531527 -0.006179293 0.0039487546 -0.03556669 0.0057776757 -0.018471569 -0.0097535765 0.0031753746 -0.017115127 -0.006944896 -0.014257479 0.008314383 -0.0019430426 -0.0015977927 0.026671842 0.003708938 -0.00919873 0.010606441 -0.0152658215 0.008223864 0.023428952 -0.0037271685 0.013375469 -0.006148455 -0.009636215 -0.0022334848 -0.017677158 -0.009851208 0.0069748554 0.027188176 -0.015530663 -0.010942741 -0.014995615 0.00025858454 0.0016322058 0.041612715 0.015862059 0.0034704497 0.029734533 0.017312543 0.036963202 -0.008092244 -0.017983459 -0.0110085495 0.004872095 -0.00831316 -0.0057621524 0.020994019 -0.016152596 -0.016765453 -0.033770736 0.012397262 -0.0053329654 0.003600761 0.005988613
weston -0.013006417 -0.010338316 0.010305973 0.013378269 0.0020078076 -0.008403001 -0.0029776585 0.007799973 -0.010080822 0.0009707228 -0.010811922 0.0054886877 0.009203443 0.011331355 -0.009586332 0.0015866816 0.018313289 -0.009686089 -0.006385623 0.0044515207 -0.018545832 -0.00533333 0.004102096 -0.007259011 -0.00091225957 -0.0013170412 -0.010219038 0.013092288 0.002502642 -0.003071158 -0.0044575445 -0.0148504 0.0008502451 -0.0005119451 0.0066888854 0.019178996 0.008694336 0.00041532965 0.014975196 -0.0034253886 0.0012549309 0.016138064 -0.007172808 0.0072037033 0.0042147078 0.0061714742 -0.00039984775 0.0035174103 -0.021904498 -0.001438644 -0.0048617152 -0.005614 -0.00020297342 -0.008007892 0.00270373 -0.004492141 0.0032003266 -0.0066368557 0.0056982986 0.014389407 0.0036725525 -0.003807363 0.0020515812 -0.012268093 0.006324862 0.006927223 -0.0025993804 0.011248585 -0.0048192292 -0.006381285 0.0001918861 -0.007851801 -0.00594014 0.0086384155 0.017648334 -0.009282396 -0.0092383325 -0.007362111 -0.0061599743 -0.0014917732 0.012868959 0.0041395086 0.00230461 0.012935405 0.01078053 0.010875533 -0.0067973337 -0.009595464 -8.321407e-05 -0.00033013834 -0.0043455944 -0.00020608684 0.0073955185 -0.009004379 -0.006352943 -0.019782238 0.0120563125 -0.0065395553 -0.002210324 0.0029693318
every -0.018114496 -0.014297205 0.02083004 0.01871353 -0.0021349231 -0.014257146 0.008253733 0.011387592 -0.02363342 0.0027167322 -0.012410777 -0.0007939615 0.010468366 0.023739662 -0.010054775 0.013634415 0.041884113 -0.016006734 -0.011949909 0.0038614704 -0.0322109 -0.00797798 0.004553992 -0.015398158 -0.015597592 -0.009113321 -0.010683029 0.023781627 -0.0034536188 0.0027670215 0.004251664 -0.0335078 -0.0051347297 0.0142307915 0.009582434 0.042587325 0.00852334 0.009063661 0.042722277 -5.149881e-05 0.0016360814 0.023634369 -0.004890301 0.008859463 0.006434961 0.012571492 -0.0069648144 0.00026339307 -0.037758615 0.010740644 -0.010120787 -0.013296404 0.007093244 -0.008702925 0.0007074219 -0.014639067 0.0030528258 -0.008515556 -0.0010078122 0.023805546 -0.0005596801 -0.00084195874 0.014059483 -0.018334143 -0.00069389003 0.02226815 -0.008416062 0.017018817 -0.005867682 -0.013267075 -0.0037323853 -0.022306882 -0.004944057 0.005879424 0.028952772 -0.014272426 -0.0069263056 -0.019578373 -0.0009454384 0.002027888 0.038810488 0.011652923 0.0052033095 0.033789452 0.012986589 0.026835514 -0.008116793 -0.011185457 -0.0012555004 0.0060717943 -0.00413306 -0.007159428 0.021604683 -0.012241199 -0.008386286 -0.033692453 0.012180086 -0.012110942 -0.0016322392 0.008865738
well -0.02259344 -0.015341651 0.013064705 0.022264043 0.007499842 -0.016037693 0.008477543 0.005491452 -0.023369573 -0.0021945348 -0.020956298 -0.0012243891 0.009196952 0.026308248 -0.012537135 0.007373715 0.034864258 -0.009571703 -0.011375079 0.0057766517 -0.029788626 -0.0025940381 -0.0011394249 -0.019780995 -0.015925458 -0.0019384857 -0.011835091 0.02468809 -0.006007464 -0.0023814712 0.004247018 -0.035555728 0.0012225445 0.0071650506 0.01303585 0.046327185 0.016520528 0.0032137632 0.0410278 -0.005807237 -0.0035491565 0.029626902 -0.008072782 0.0053503546 0.004469904 0.015529435 -0.009263202 0.0020639435 -0.03908274 0.009608006 -0.01297029 -0.008810824 0.003283481 -0.0075174873 -0.0048897965 -0.0071880897 0.008180142 -0.009222243 0.005756909 0.027132474 0.007444783 -0.0113067115 0.008305294 -0.019084433 -0.00070746185 0.015359794 -0.009312324 0.015169752 -0.0039430996 -0.012257527 -0.00027201622 -0.013627534 -0.0070481687 0.012190356 0.03132748 -0.011329373 -0.013793229 -0.013698499 -0.0059461747 0.0030922599 0.03687682 0.00862849 -0.0012482437 0.031685024 0.0095906295 0.034971762 -0.003772487 -0.012905291 -0.002661481 0.004109392 -0.0035305724 -0.004279024 0.02008042 -0.013271698 -0.018791173 -0.031468168 0.012933141 -0.010805796 0.0061774855 0.008824995
thing -0.018791214 -0.015899023 0.01543226 0.023713803 -0.0013361388 -0.016150694 -0.0003967347 0.0052886596 -0.022960411 0.0027637745 -0.017893586 0.000495981 0.009982422 0.02117593 -0.012114803 0.01076997 0.034611076 -0.015770718 -0.011602309 -0.0006634204 -0.037816804 -0.006132727 0.0014660739 -0.016054457 -0.013506276 -0.0020007878 -0.010953384 0.019949881 -0.0034711787 0.00041492167 0.0008739673 -0.029285552 -0.006346272 0.0086111445 0.013098173 0.04228101 0.012773299 0.0067205653 0.039208077 -0.003783532 -0.005208221 0.031366818 -0.008867047 0.007906609 0.008482012 0.012119965 -0.0066628302 0.0043984 -0.036295116 0.009275863 -0.011740263 -0.0151892435 0.0048026787 -0.0130419675 -0.001206072 -0.00544077 0.0026383635 -0.0026156467 0.0041337265 0.025625683 0.0018392482 -0.0032177456 0.0064021233 -0.012126956 0.0073425546 0.017225383 -0.009248254 0.018160198 -0.004457216 -0.012939175 0.0008990062 -0.018776447 -0.006303843 0.013575632 0.03004224 -0.018497027 -0.0138099305 -0.015628617 -0.0003257129 0.007841346 0.038443975 0.011065991 0.005109901 0.031493578 0.013365603 0.030265702 -0.011310822 -0.014304634 -0.00734223 0.00909994 -0.005343149 -0.0056649 0.013700012 -0.014889873 -0.010523118 -0.03329496 0.017968656 -0.01107164 -0.0019245731 0.0067422967
knightley -0.014804137 -0.010972447 0.017342055 0.017429555 -0.00043792653 -0.0061632264 0.0009687627 0.0022263594 -0.02366048 -0.0038230415 -0.015877359 0.001896688 0.0108022345 0.022867553 -0.0074347416 0.008157158 0.03762677 -0.010167525 -0.013173461 0.005396295 -0.025233189 -0.0033023679 -0.0018504745 -0.009165892 -0.014823171 -0.005315117 -0.007966221 0.018346453 -0.0031250208 0.0027879118 -0.0001813361 -0.028514761 -0.0030310967 0.009035297 0.00887355 0.04118119 0.006714166 0.0069830366 0.033547863 0.0009280448 0.00027950373 0.028153174 -0.0073341895 0.0059483075 0.0059326296 0.016808623 -0.0080370605 0.002066806 -0.035372015 4.556811e-05 -0.018145865 -0.009949717 0.0039738812 -0.011447887 0.0004761205 -0.004282181 0.00012735015 -0.00093852804 -0.0011144971 0.016834384 0.004786089 -0.0029624908 0.00835317 -0.017536743 0.004514419 0.015063395 -0.007028594 0.013836856 -0.00421495 -0.010838367 0.00023169583 -0.01695362 -0.0058815614 0.006743468 0.024389254 -0.012886439 -0.009491651 -0.017620657 -0.0013150983 0.00264923 0.032940492 0.012838151 -0.0022186402 0.027463563 0.015952986 0.029266344 -0.0036806143 -0.013740503 -0.0022651344 0.0015277488 -0.0072181216 -0.008979011 0.016289322 -0.012029313 -0.010734606 -0.032842595 0.009984365 -0.01309394 0.0050113583 0.007210915
elton -0.019796045 -0.018350767 0.016319158 0.023175113 0.0020755576 -0.017239686 0.0014746502 0.004883747 -0.026587607 0.002398554 -0.022355298 0.0011943948 0.0071621398 0.027592054 -0.013213782 0.013568619 0.038747665 -0.019936487 -0.015652407 0.0012552475 -0.029932404 -0.004013247 0.0017069803 -0.012848362 -0.01248431 -0.005090597 -0.014533525 0.021023802 -0.0051379977 -0.005503463 0.0043847966 -0.031790666 -0.004864589 0.004772286 0.007350168 0.042940047 0.009241951 0.0025410806 0.035094842 -0.005918764 -0.0049773883 0.033905715 -0.0024693706 0.013107621 0.008269726 0.012145439 -0.01135448 -0.004687461 -0.036613353 0.0043851105 -0.013292997 -0.014110507 0.005741726 -0.012605426 -0.0023044313 -0.011001043 -0.00060582964 -0.0102467425 0.0059055598 0.021824664 0.00108462 -0.010810172 0.013879597 -0.017257852 0.0060746404 0.015868409 -0.004099226 0.014073021 -0.01047808 -0.008350749 -0.0048753954 -0.01645624 -0.0053606476 0.011196327 0.025395345 -0.020100888 -0.015173684 -0.021387238 -0.0018095142 0.003295586 0.040512946 0.0076569878 0.0014054059 0.027665924 0.017120542 0.030815393 -0.007998125 -0.017235342 -0.0051345504 0.0071138106 -0.0066942773 -0.0064579374 0.018058185 -0.016768375 -0.010910699 -0.034300514 0.014563759 -0.01300711 0.004304083 0.008399679
think -0.02208796 -0.015486072 0.026158428 0.02119917 0.00042826816 -0.015911533 0.0072773495 0.0058068177 -0.0328233 -0.0016124015 -0.027488511 0.0010653983 0.012729536 0.025450805 -0.01052669 0.015384648 0.049405333 -0.020376481 -0.023729987 0.0067181084 -0.04512117 -0.011547791 -0.0019827601 -0.019373301 -0.013142423 -0.00660008 -0.020036107 0.024678776 -0.0009038242 -0.00031361612 -0.002257711 -0.0481257 -0.0059109265 0.016405748 0.013346381 0.05759552 0.0136308875 0.010882049 0.055990927 -0.004920525 0.0015837199 0.03879856 -0.0067328233 0.016445363 0.0099383425 0.024493482 -0.014163893 0.00023380687 -0.048858505 0.0035751997 -0.019648803 -0.018919172 0.0060079726 -0.011074351 -0.0017116709 -0.017342763 0.0048544635 -0.009782421 0.0006093406 0.02508501 0.0015026364 -0.01237364 0.010350214 -0.026274089 0.0048904405 0.025545493 -0.01119069 0.019594561 -0.008125381 -0.013492142 -0.0075106006 -0.023192408 -0.012965676 0.014324462 0.0401884 -0.017991258 -0.015570204 -0.02487498 -0.00344233 0.0028003028 0.046922088 0.016148414 0.0035512105 0.03677083 0.020965023 0.037725415 -0.011087217 -0.017862218 -0.010794761 0.009235573 -0.006818808 -0.0073494962 0.021181952 -0.019298853 -0.01828034 -0.045176845 0.021842374 -0.008884747 -0.0012223794 0.010573155
little -0.013188153 -0.014781621 0.016493108 0.023256658 0.0050886427 -0.01294707 0.0008273508 0.0071587055 -0.022408517 0.0007063208 -0.016130691 -0.00012039515 0.0057070386 0.02145552 -0.009055452 0.0068878117 0.03192884 -0.014557589 -0.012454257 0.0009839588 -0.035599295 -0.003397758 -0.00084878685 -0.017707413 -0.015046851 -0.009590243 -0.009006799 0.017544702 -0.0013986412 -0.0055243103 0.003055641 -0.03347871 -0.0024755914 0.0060058814 0.0072028534 0.044019315 0.011046685 0.0079373615 0.041086685 -0.008776642 0.0007905936 0.029887479 -0.0031753818 0.012709002 0.009990884 0.01377092 -0.010206097 0.002280515 -0.03857203 0.0027165778 -0.019148117 -0.010663031 0.008400242 -0.007405889 -0.002445726 -0.012187471 -0.0011303601 -0.009817803 -0.0022498725 0.02320842 0.007268988 -0.0056443447 0.014789503 -0.020672344 0.0006303506 0.014618858 -0.0067335884 0.01238623 -0.010367815 -0.009922344 -0.006492723 -0.019863576 -0.006726078 0.0035655932 0.02806713 -0.012136241 -0.010640978 -0.018518297 0.002333243 0.00868121 0.032880876 0.009190198 0.0055558477 0.025204819 0.011462687 0.027439639 -0.01154306 -0.014028346 -0.0007466806 0.0041894917 -0.0022171282 -0.0022638065 0.01919077 -0.012670557 -0.017556632 -0.0284051 0.019081224 -0.008805002 0.0077008363 0.0032187006
good -0.0285921 -0.019423809 0.031523943 0.034725174 0.010061844 -0.025721079 0.01125097 0.008578129 -0.035483062 0.001321411 -0.025751028 0.0033348266 0.01699735 0.033103883 -0.021560686 0.017959211 0.05915082 -0.02290269 -0.02039116 0.0053916406 -0.056892857 -0.0068936283 0.0055791074 -0.02692512 -0.01756345 -0.015144967 -0.029170202 0.03682968 -0.0008974235 -0.0018105718 -0.0028184955 -0.056087308 -0.001084798 0.015066268 0.018457182 0.06539843 0.017890664 0.015619802 0.0616941 -0.010103226 -0.0017042941 0.048709936 -0.007402278 0.01829432 0.006278373 0.027074214 -0.011882315 -0.001537958 -0.059104387 0.0068950388 -0.023009663 -0.019823048 0.011759939 -0.015000425 -0.0013907658 -0.015726423 0.0022882768 -0.009933464 0.006635981 0.040105477 0.006953012 -0.0148395905 0.015487658 -0.029488461 0.0062866486 0.028481275 -0.01122555 0.018298311 -0.007886314 -0.012067403 -0.0077185044 -0.025478808 -0.010345133 0.010173263 0.048188843 -0.028593443 -0.019169293 -0.029651064 -0.008737927 0.012341915 0.053316567 0.013485473 0.00066480663 0.052959047 0.023184082 0.050813884 -0.014780912 -0.018705936 -0.011908035 0.012668112 -0.010760759 -0.0098365275 0.03187978 -0.03255515 -0.026726538 -0.059018347 0.028387325 -0.014716031 0.0049035493 0.015684392
never -0.020091584 -0.010485086 0.02204176 0.016352993 0.0025407202 -0.011474234 -0.00036077076 0.011636202 -0.01955669 0.00027129674 -0.02039582 0.005030455 0.012855259 0.025693018 -0.012240213 0.0051482804 0.037438873 -0.014478856 -0.0122757135 0.005962337 -0.0386327 -0.0013575596 -0.00390363 -0.016715396 -0.0063808616 -0.0060349545 -0.00949894 0.023148049 -0.0042765015 -0.00416476 -0.00020591535 -0.03901388 -0.007903919 0.011178543 0.011270446 0.04595029 0.012188459 0.0054360735 0.041170586 -0.0030200381 0.0017848252 0.03121871 -0.0052934224 0.005479741 0.00738398 0.018168205 -0.007798983 -0.0048508993 -0.037007377 0.007572529 -0.017083863 -0.0060956525 0.007756663 -0.006875218 -0.0057481993 -0.010814075 -0.001845899 -0.008494491 0.0034359265 0.020744098 0.0005229542 -0.0024975839 0.008010895 -0.018445209 0.004548658 0.017544294 -0.0048092534 0.010057304 -0.009104491 -0.013802616 -0.0053829844 -0.016917719 -0.0028071431 0.010763879 0.030127505 -0.010759249 -0.00967702 -0.020465147 0.0015810897 0.0065301587 0.03496273 0.009851956 0.002532522 0.02822054 0.010921525 0.033088993 -0.007992857 -0.00984514 -0.010006606 0.0074611767 -0.008276962 -0.0026603332 0.017273897 -0.0180022 -0.018493067 -0.036864094 0.020247707 -0.0082927225 0.0038743105 0.008204865
know -0.013357971 -0.015173304 0.013356014 0.011954738 0.0053975214 -0.007486352 0.00015966524 0.011000169 -0.01922916 -0.0022874817 -0.012331872 0.0077834628 0.006361006 0.01530786 -0.007901504 0.004328497 0.034601502 -0.010998217 -0.013585865 -0.0014745349 -0.03250594 -0.009195327 0.0009700974 -0.015866008 -0.007280313 -0.007822074 -0.014553892 0.017756669 -0.0016946214 -0.0012060932 -0.0045353426 -0.026598185 -0.0002466649 0.00793733 0.0032731534 0.03833908 0.008873237 0.0105894245 0.031370055 -0.00038405551 0.0023985212 0.026021127 -0.004212932 0.010027275 0.006680038 0.011308415 -0.00866307 0.0046008537 -0.02868 0.0066419723 -0.016285494 -0.014061964 0.008471011 -0.011447458 -0.0056182896 -0.005953844 0.0047217463 -0.0051918672 0.0007522376 0.019273529 0.008491485 -0.004521748 0.009560388 -0.011523097 0.0026753484 0.018740185 -0.0017604352 0.00781382 -0.009274424 -0.005478487 -0.0014462578 -0.017936684 -0.0019196543 0.0056116967 0.026639285 -0.010772644 -0.010035308 -0.014036525 -0.0025130196 -0.0001527162 0.0321431 0.007720028 0.004578496 0.025559314 0.008791423 0.028347785 -0.0027449871 -0.011887826 -0.008995277 0.009265115 -0.0073790466 -0.0075363996 0.014072772 -0.013457034 -0.01046107 -0.024790667 0.011892721 -0.00667133 0.0042981817 0.008467478
might -0.01513406 -0.0063292217 0.014142606 0.01548222 0.0005025942 -0.012208915 0.0037797848 0.007899024 -0.015519572 -0.00021122921 -0.015662378 0.0029933474 0.008267872 0.017479518 -0.006354812 0.0028397418 0.032898434 -0.013154289 -0.009309316 0.00035812272 -0.023775028 -0.0037413659 0.0050654733 -0.016171707 -0.013276844 -0.0018436598 -0.01095666 0.017637033 -0.007001515 -0.004291256 0.0028617522 -0.029761853 0.002268891 0.005438794 0.011646124 0.03384136 0.013548142 0.000947481 0.028247247 -0.0060965596 -0.0015320269 0.018813934 -0.0003199265 0.009438413 0.0015096699 0.009489567 -0.012297478 0.0009375853 -0.028480224 0.0014261779 -0.0119892135 -0.0064518894 0.0053390195 -0.0104091065 0.003836952 -0.009220523 0.0039027461 -0.0041714385 0.004641392 0.014218159 -0.0003310889 -0.0008988694 0.01196839 -0.008821655 -0.00048596575 0.010433825 -0.007795054 0.010612591 -0.009782476 -0.008766154 -0.0028237228 -0.015037373 -0.00082937325 0.0053799464 0.024176328 -0.0069105225 -0.00756816 -0.011703408 -0.0031309812 0.0039376155 0.026233468 0.0051324284 0.0037368552 0.020073539 0.0067994604 0.020817373 -0.009092997 -0.00982172 -0.0057027284 0.006401894 -0.007443541 -0.004174437 0.016679462 -0.013183423 -0.0062190336 -0.0237638 0.016765783 -0.0014919223 0.0037207576 0.009458563
woodhouse -0.013233308 -0.006688941 0.014279244 0.013018529 0.0039402586 -0.01406542 -0.0002836504 0.011425436 -0.012883699 -0.0034080532 -0.013020338 0.0017157109 0.009661937 0.015113213 -0.0041538607 0.008920325 0.031804197 -0.012279717 -0.0119021 -0.0022956366 -0.027097374 -0.008777693 0.004566231 -0.014012634 -0.008699928 -0.00023055136 -0.014642466 0.01834073 0.0010417853 -0.004554573 0.0035622406 -0.024570568 -0.007256553 0.012066752 0.011121939 0.030182919 0.008363406 0.0060199066 0.035246152 -0.0047236485 0.0036405574 0.018860068 -0.0043719183 0.003349789 0.010010683 0.017306097 -0.012905822 0.004653321 -0.028892744 0.0015845267 -0.010287762 -0.010588237 0.0014268616 -0.0051761577 -0.005865896 -0.007949729 0.003019932 -0.0040669935 0.0026276908 0.01593777 -0.00079140224 -0.0033069516 0.0061922534 -0.012692494 0.004298588 0.019338334 -0.008610305 0.011555145 -0.0021064878 -0.005994888 -0.008638987 -0.008987356 -0.00672767 0.009192307 0.027137958 -0.013518771 -0.0030974508 -0.012408809 0.00084506534 0.0064316513 0.031413216 0.009849445 0.0048859455 0.025613213 0.011101007 0.028859496 -0.011649148 -0.015372386 -0.0048660063 0.0035408856 -0.00950803 -0.007530166 0.010956965 -0.017695114 -0.01247416 -0.028404128 0.0111045325 -0.009407949 0.0062959427 0.005545032
say -0.015284249 -0.008059033 0.011982205 0.013496538 0.0050514746 -0.014783539 0.0057196617 0.004386625 -0.014762337 0.003204348 -0.017739862 0.0074377726 0.003059577 0.0154036395 -0.010642258 0.0046854652 0.033364046 -0.0113206105 -0.008130309 0.0060500116 -0.025461184 -0.008857796 -0.001651389 -0.01056861 -0.0046711853 -0.0079784 -0.007715821 0.015320586 -0.0021605364 0.00089289685 0.0048560426 -0.029622206 -0.0036094703 0.00613534 0.005572954 0.03667846 0.008721073 0.0014353764 0.029851291 -0.0060964343 0.001951626 0.023746613 -0.0040521077 0.0044070235 0.005534214 0.01552877 -0.0061697117 -0.0017019188 -0.024055703 0.0035925936 -0.01671191 -0.0035712607 0.009227122 -0.0064791334 -0.00487479 -0.0071947994 0.0019380708 -0.00966175 0.0028630595 0.014868619 0.006604584 -0.007133423 0.012611003 -0.015812108 0.0027146004 0.018550225 -0.0054646814 0.0115420325 -0.0063983724 -0.009051704 -0.00038845002 -0.017845726 -0.0063239317 0.002947061 0.021394398 -0.007932121 -0.0050488953 -0.01693481 -0.0019897656 0.0058973106 0.031419624 0.008341398 0.00091065385 0.024701582 0.007666789 0.028341033 -0.0037883937 -0.010670484 -0.0027597367 0.003842666 -0.008555696 -0.0064224084 0.014890072 -0.016811198 -0.009436625 -0.024939524 0.015921265 -0.0051880116 -0.0017329614 0.006336877
jane 0.0027744516 -0.004936986 0.005495613 0.004454688 -0.0015184549 0.004279633 0.0031633775 0.0019010848 0.0036281392 -0.00042421292 0.003324324 -0.0034339456 0.0010523231 -0.0032609943 0.00052252744 0.0024679105 0.006168699 0.0025836632 0.00031709846 -8.525464e-05 0.00081211695 -0.0032739916 0.0044640787 0.003190938 -0.00083266234 0.0038865386 -0.0015398451 0.0003623375 0.0019104033 -5.74985e-05 -0.0026878722 -0.0059443023 -0.0020016443 0.0029192865 -0.0032602851 0.00658204 0.0029347655 -0.0005616807 0.003959702 -0.004056708 0.0001343862 0.0024851123 0.0039431364 0.0029931762 0.003981492 0.005403366 -0.0017200679 -0.0021681434 -0.0037456446 0.0031688248 -0.00545383 0.0026408804 -0.0018072971 -0.0022577462 0.0048252335 -0.0048847594 0.002484384 -0.003589724 0.0029064496 0.0019682213 -0.0033378627 -0.00077176094 -0.0040186397 -0.003675762 0.0033955947 0.0041202535 -0.0013913605 -0.00022645708 -0.005135127 0.0019857406 -0.0014494914 -0.002837927 0.0029345395 -0.0002348598 0.0045714187 -0.0012619122 0.000462276 -0.00056501897 -0.0037281788 -0.001443168 0.0040232777 -0.0021945934 0.0025013192 0.00030644002 -0.0023596408 0.0059848693 -0.0036001732 0.0016313975 -0.0029599096 -0.0018362897 -0.0034795974 0.0016005025 0.00027036708 -0.001363815 -0.002221257 -0.0038934455 0.00502254 0.0011417769 0.0012461516 -0.0007215607
quite -0.0061301673 -0.00520588 0.012923026 0.01287777 -0.0024243693 -0.010038667 0.0040958296 0.0049222205 -0.013696533 -0.002634183 -0.005319353 -0.0020293554 0.00033903902 0.014763745 -0.008817741 0.009027031 0.023040403 -0.00794965 -0.010813108 0.003042066 -0.015740206 -0.0059454516 -0.0013764298 -0.010014152 -0.0011238372 0.0015548863 -0.004750481 0.009988892 0.0029576947 -0.0011756262 0.0016696544 -0.016045313 -0.004768999 0.0023377335 0.0050210278 0.017577529 0.0077421214 0.008128543 0.025235346 0.0011309074 -0.0036506697 0.016910683 -0.0025084827 0.008657962 0.00036985942 0.010235464 -0.009238753 -0.002165404 -0.021255257 0.0038102446 -0.009958926 -0.009584575 -0.00028653588 -0.0076871375 0.0006872759 -0.0011385799 -0.0008421007 -0.003911665 0.00113006 0.0085885115 0.00676908 -0.0010816888 0.005768973 -0.0052144146 0.0043826825 0.012931913 -0.00082434056 0.0032682011 -0.007306756 -0.0050784685 -0.0019764497 -0.012046522 0.0008154227 0.006001544 0.015897674 -0.0048933974 -0.008423885 -0.0103978235 -0.0063857725 0.0064055724 0.0216489 0.008297977 0.0021813707 0.012471855 0.0059037134 0.01763964 -0.005231758 -0.005096187 -0.00058274827 0.0066153714 0.0011709236 -0.0009221593 0.013708216 -0.0141094085 -0.004133845 -0.018134039 0.0034256352 -0.0023607917 0.003124334 0.0018041753
time -0.01518107 -0.01117061 0.012033479 0.012850382 0.0037974748 -0.004147492 0.00060670945 0.004485141 -0.018033935 -0.0028205551 -0.008046489 0.0005285481 0.005573272 0.018316263 -0.0060778875 0.0031384425 0.029355653 -0.014008114 -0.012546294 0.00064647256 -0.021927247 -0.0042168926 -0.0043249163 -0.007622049 -0.0069607394 -0.002839374 -0.011152017 0.017366655 0.0018046792 0.0016604699 0.0020350807 -0.027008573 -0.002352916 0.0039265906 0.005454106 0.030781204 0.012551972 0.007473777 0.020479312 -0.0047887345 -0.003887095 0.015972935 -0.0021888895 0.007927723 -0.0005992569 0.0089398585 -0.00873634 0.003461077 -0.023482323 -0.0012525634 -0.006198554 -0.0054759425 0.0012332455 -0.003212709 0.0009368256 -0.0043878737 0.0020959186 -0.002016607 0.005743318 0.0108394995 0.0052704015 -0.008552597 0.003099497 -0.015174983 0.007060567 0.007786276 5.6773977e-05 0.0048079276 -0.002755308 -0.010111844 -0.004938958 -0.006765208 -0.008545993 0.00543178 0.015334075 -0.007857877 -0.008059757 -0.009331229 -0.004686322 0.0061800717 0.018791258 0.004434862 0.0046466487 0.024472842 0.014087481 0.022571264 -0.00086099457 -0.0048163403 -0.006429263 0.00066196226 -0.006984689 -0.00549551 0.010974918 -0.016434941 -0.012192984 -0.024012836 0.009729445 -0.009177788 -0.0004561101 0.0073690685
great -0.01855178 -0.009554608 0.020333508 0.018183824 0.0049850214 -0.012611687 0.0044164513 0.0041202363 -0.025143689 0.0046198135 -0.019137768 0.0076018353 0.008491709 0.023175225 -0.010441282 0.0069533107 0.037062332 -0.009328723 -0.01107019 0.0010552405 -0.033469554 -0.009431993 0.005418629 -0.013032345 -0.012146009 -0.010577711 -0.012041394 0.019179711 -0.0077981167 -0.003907934 -0.00130475 -0.031559348 -3.3353488e-05 0.005155513 0.0124006765 0.036649868 0.0096909795 0.0065230443 0.03809168 -0.004571882 0.0035019272 0.026847433 -0.008026008 0.007607213 0.010670378 0.009564938 -0.010211753 0.0010087134 -0.034723062 0.010314824 -0.019439824 -0.008403338 0.011819146 -0.011520854 0.0027188137 -0.008610718 0.0014756301 -0.007958687 0.0011076357 0.018788887 0.0034517725 -0.0045058616 0.010799938 -0.02050518 0.0057817167 0.022785751 -0.0012029414 0.0123472605 -0.0018198316 -0.009607852 -0.0046081734 -0.021234503 -0.009466875 0.008836952 0.0230539 -0.010413486 -0.012100988 -0.019727428 0.0013053818 0.002551857 0.035194304 0.007873515 -0.0018216483 0.02849743 0.012236178 0.03170684 -0.011821521 -0.009779757 -0.0046774903 0.0050696 -0.005541043 -0.0031852643 0.020270066 -0.019795997 -0.017119383 -0.032142803 0.012347576 -0.008092882 0.0068762507 0.008072294
nothing -0.011620154 -0.014803834 0.0107231345 0.011362099 0.005508573 -0.0051141097 0.007079708 0.0089918915 -0.011874143 -0.0029746126 -0.011423328 0.0068451087 0.0044876486 0.015535268 -0.010052101 0.0025865233 0.025188072 -0.011708481 -0.0062949904 -0.0017729609 -0.025109058 -0.004917747 -0.0024967017 -0.014900477 -0.0122283455 -0.0052169515 -0.014757012 0.020389719 0.0024454342 0.0038163813 0.004831452 -0.031048551 -0.0033499717 0.0068809493 0.008043645 0.028857723 0.010277331 0.0012387047 0.028045697 -0.0028358873 -0.0023419086 0.024640987 -0.0077761426 0.007986763 0.0063298573 0.016489733 -0.0035864452 0.002518688 -0.026880855 0.004105514 -0.016022773 -0.011632343 0.005775108 -0.0045946157 -8.97076e-05 -0.006202532 -0.00043854 -0.0032121278 0.0014255769 0.01764561 0.0063061654 -0.009539764 0.008850702 -0.012573536 -0.00024031065 0.014270081 -0.007151754 0.012820164 -0.0038075633 -0.00878976 -0.0016355388 -0.012190488 -0.007245431 0.007148282 0.016102852 -0.0067128707 -0.004694349 -0.018486682 -0.003958533 0.004043829 0.029211162 0.008773825 0.00050392083 0.025510853 0.0073213773 0.01967098 -0.003064097 -0.015128072 -0.0002806867 0.0044530104 -0.004831262 -0.0084615415 0.00885822 -0.013382809 -0.0077086757 -0.026902504 0.0083604185 -0.004080884 0.004358257 0.008298029
dear -0.020824699 -0.0077597126 0.0139236245 0.020525789 0.00049134524 -0.009997867 -0.00028439797 0.0030823525 -0.015943859 0.004258473 -0.01722201 0.0074647875 0.0076262173 0.016125176 -0.009312016 0.010033689 0.03934573 -0.009104065 -0.018639341 -0.0024854487 -0.03701691 -0.0066858046 0.002005775 -0.014323639 -0.015213833 -0.006410404 -0.018755026 0.01846421 -0.0073931315 -0.0003091253 0.0057248524 -0.03738616 0.00030810738 0.0057430975 0.0071406546 0.039228614 0.011210066 0.008310805 0.04045699 -0.003208894 0.002646362 0.022131607 -0.006912156 0.012617115 0.003496902 0.016071439 -0.008850237 0.001754066 -0.02978681 0.009045986 -0.013929484 -0.014806623 0.003997086 -0.0076190364 -0.00051582645 -0.012189027 0.007949516 -0.0033517587 0.0060818777 0.026009748 -0.0005790684 -0.0019602831 0.010269882 -0.018321013 0.008209061 0.017462369 -0.0047439467 0.014277422 -0.0034885223 -0.007376242 -0.0039598364 -0.011966347 -0.006610975 0.011143587 0.028666662 -0.018764224 -0.013615262 -0.020527052 -0.007918881 0.007104745 0.03462689 0.008055471 -0.0031678465 0.032994267 0.0144607825 0.028337834 -0.0034077778 -0.017857598 -0.0027885307 0.009044246 -0.0015543364 -0.005383113 0.01397262 -0.01969589 -0.01811255 -0.03570845 0.018810332 -0.011956707 -0.0021041892 0.0055528088
fairfax -0.002413899 -0.0038507322 0.0053468333 0.00236376 0.0030319195 0.002387441 0.00015576191 -0.00030247177 -0.0017994285 0.0025418352 -0.0046179043 -0.0021982035 -0.0033692252 -0.00043312256 0.004262039 0.00047867006 0.0019011237 -0.0048917755 -0.005139113 -0.0025558292 0.0011097362 -0.0017125224 -0.00095406047 0.0008726776 -0.0010109509 -0.0021359182 -0.0018145477 0.0006998165 0.001724936 -0.0019158114 0.0034161624 -0.000849462 0.0038154346 0.0034223075 0.001375178 0.0008212393 -0.0023605325 -0.00441354 -0.0010251409 0.0016412674 0.0031999752 -0.0012212071 0.0045539937 0.0021708366 -0.0026379307 0.005577652 -0.0009763719 0.0014550893 -0.0023526712 0.0020758375 -0.0037585122 -0.0020580855 0.00011591721 -0.004154852 -0.0026542763 0.0016852521 0.0043982374 -0.0026172951 0.0028860248 -0.0033548481 0.0015337137 -0.0033487256 0.0015391286 -0.0036090834 -0.0033581934 -7.9246136e-05 0.0027320208 -0.002256126 0.0038347244 0.0008863378 -0.004324451 -0.0018966948 -0.0023091664 0.0024382644 0.00038044472 -0.005070193 -0.0034444018 0.003084626 -0.0041343104 0.00051405793 0.004806749 0.005537568 0.004222142 0.0039554336 -0.0021267554 0.0056423075 0.0026274673 0.0031967405 0.0008353686 0.0026425002 0.0038346716 -0.0053010075 -0.002575829 -0.005798831 -0.0014925585 0.0003441262 -0.0029354135 0.0020704835 0.00014490033 0.0030329889
always -0.013395288 -0.014407661 0.018065592 0.013203146 0.0043681976 -0.00922236 0.008265035 0.0019230641 -0.017941877 -0.002109151 -0.016953342 0.0034653437 0.0049734074 0.019201305 -0.01197666 0.008561371 0.034222174 -0.012394803 -0.010381971 -0.002681317 -0.02886942 -0.007449348 -0.0022787692 -0.010566751 -0.0064417496 -0.009919227 -0.007670101 0.011888177 -0.00033834754 0.00078261446 -0.0047272346 -0.025724271 -7.0332506e-05 0.011980664 0.005321404 0.03181614 0.013083296 0.0034995915 0.02983023 -0.0077260504 -0.004323141 0.019428376 -0.008290273 0.0077987225 0.0048480174 0.012225667 -0.012483735 -0.0015411122 -0.023962576 0.004986061 -0.00734158 -0.008956622 0.0071795774 -0.004760675 0.00041376535 -0.0078864135 0.0016049403 -0.005545117 -0.0031243786 0.014490332 0.0061414707 -0.0017141527 0.013019551 -0.017846134 0.001471539 0.010674359 -0.0019049218 0.010914785 -0.0021646004 -0.0067559136 0.0012275486 -0.016413815 -0.0064084637 0.0033375458 0.023851598 -0.010095553 -0.012637613 -0.017474787 -0.00013560343 0.003177371 0.023588737 0.011250289 0.003376994 0.026661344 0.015432951 0.021477394 -0.009176566 -0.010293012 -0.007378166 0.006723877 5.3950123e-05 -0.010214113 0.010439941 -0.018535245 -0.008249593 -0.030244557 0.00986293 -0.003530815 0.003946708 0.010122618
man -0.019957937 -0.013516968 0.025496073 0.024217425 0.004395591 -0.012799946 0.0049192016 0.014206556 -0.028451478 -0.0034069426 -0.02613751 0.0038611505 0.013310487 0.032878414 -0.011260218 0.016521066 0.054955535 -0.018249601 -0.018901642 0.0025855615 -0.042955205 -0.0065178024 -0.00037546607 -0.023182735 -0.014855801 -0.008671727 -0.021742921 0.025437934 -0.005460583 -0.0018492411 -0.0011296981 -0.046864863 -0.007843867 0.011690842 0.012534763 0.059268225 0.021093082 0.008208789 0.054876268 -0.01166729 -0.0013400693 0.036583122 -0.003973821 0.01569366 0.0045991004 0.024052668 -0.009070032 0.0033090343 -0.04505095 0.0041662375 -0.023147585 -0.016576506 0.0066732443 -0.018852068 -0.0033235364 -0.010932802 0.0041943733 -0.008743826 0.005167613 0.03176983 0.0011268865 -0.006607888 0.0097857695 -0.017483504 0.0042103734 0.02212 -0.0072425497 0.01586917 -0.009649314 -0.014587756 -0.0041457843 -0.026212731 -0.0070797303 0.014063989 0.0387448 -0.015489488 -0.014633836 -0.024288215 -0.0063485117 0.011882948 0.047433313 0.011229805 0.002659876 0.045969773 0.018619305 0.04322532 -0.015529398 -0.022898654 -0.0040516974 0.0074768863 -0.007972893 -0.012291643 0.023968743 -0.026761735 -0.023094174 -0.04782038 0.016841257 -0.012182558 0.004352794 0.014014509
thought -0.019373296 -0.018842215 0.019978581 0.020740567 0.007610273 -0.011511382 0.009977962 0.0065055494 -0.028654566 -0.000980936 -0.024438525 0.0051243785 0.011411595 0.025902374 -0.012931829 0.008599698 0.046026617 -0.020496806 -0.013407926 0.004567928 -0.03822987 -0.0026601206 -0.0036281866 -0.020129332 -0.01299376 -0.0076607983 -0.01964109 0.026327142 -0.008358332 -0.0019186286 -0.0007081526 -0.03955319 -0.001268373 0.009379851 0.013607491 0.052460276 0.01597708 0.0031272366 0.03984454 -0.0028367245 -0.003878477 0.03250739 -0.0033406073 0.009370351 0.009757106 0.0149815185 -0.013210846 0.000228027 -0.043867324 0.011343768 -0.01339839 -0.011823846 0.009952583 -0.015068773 0.00068164465 -0.013902443 0.0062048165 -0.0028470051 -0.00016095753 0.020836674 0.0055545876 -0.012067258 0.009793284 -0.021748655 0.0035497323 0.019323243 -0.0065657953 0.011882852 -0.0065568374 -0.014562682 -0.007286814 -0.024553487 -0.009565705 0.007606507 0.028509418 -0.019512655 -0.0077025564 -0.01798563 -0.0029907054 0.006998752 0.04042522 0.010672236 0.0016116211 0.037177444 0.012992537 0.03749602 -0.012522042 -0.019315323 -0.007765064 0.006245021 -0.006680034 -0.008158297 0.020412695 -0.02012861 -0.012892217 -0.033766676 0.019444074 -0.0076071406 0.0043017925 0.0059052543
soon -0.00895258 -0.011254962 0.007438146 0.010184694 0.0050149118 -0.0099971425 0.005035784 0.009090659 -0.017815422 0.002242279 -0.016375002 0.00031366263 0.0019087516 0.018468462 -0.008011736 0.0060210796 0.02788887 -0.010316235 -0.0065070284 0.0042929053 -0.019171493 -0.006809267 -0.0024163635 -0.012923482 -0.006590533 -0.007587633 -0.006170157 0.009748497 0.0027158496 0.0016315638 0.0033603662 -0.02778447 -0.000328603 0.0037405698 0.003300126 0.027927943 0.013184462 0.005976164 0.027862677 -0.0070510954 -0.004870407 0.01754955 -0.008011018 0.0070399274 0.0033116445 0.0052881436 -0.007570464 0.0002603616 -0.020607624 0.0043144724 -0.011550444 -0.010634478 0.0070591304 -0.0043862658 -0.0056333463 -0.011225012 0.0034018974 -0.00280875 0.0029549494 0.014850476 0.0023802929 -0.006456619 0.010198689 -0.00932655 0.0054668984 0.00776411 -0.0023681885 0.012159492 -0.0012372611 -0.0019084585 -1.0704305e-05 -0.012304415 -0.0074183503 0.006208023 0.017813127 -0.010786131 -0.005592295 -0.015237884 -0.0061816033 0.0039646346 0.021726372 0.0079928115 0.0014089572 0.021128524 0.0069863964 0.018858893 -0.0053836037 -0.011245901 -0.0072641466 0.008443777 -0.0069313264 -0.0028520643 0.01545053 -0.017065652 -0.011402232 -0.017616708 0.013556139 -0.00478064 0.005179746 0.003792724
churchill -0.0049507306 0.0031570285 0.006568462 0.0054059 -0.0004925633 -0.006461109 0.0043427967 0.0044580707 -0.007052834 -0.0031002015 0.00077589886 -0.0019040426 0.0051499 0.0039031676 -0.001065789 0.003530854 0.0008688938 0.00285704 0.0027210251 -0.00109277 -0.00861111 -0.0014896928 -0.0013365832 -0.0021644717 -0.0016265968 -0.004855393 -0.005929842 0.0019603954 0.0040840986 0.0038520223 -0.002263355 -0.0056157093 -0.00071711675 0.0037542223 -0.0006245444 0.010129674 0.005732414 0.0012944385 0.0015081408 0.0024595899 0.002506404 0.0022500851 -0.0042897905 0.0011989505 0.0053867544 0.0038990448 -0.005629213 0.0021996885 -0.0032236169 0.0017479266 0.0023976304 0.002379589 0.00074330927 0.002264274 -0.004812366 -0.0059660026 -0.002347798 -0.004339243 -0.004137923 0.0013713706 0.0014095424 -0.00344807 0.0005856249 -0.0013187652 0.005481425 0.0036782736 0.0024720412 -3.9522733e-05 0.00021813806 -0.00035147814 0.0010956214 -0.0010636372 0.0029787077 0.0051424415 0.0047309236 -0.006311567 -0.0062270914 2.9009461e-06 0.0014796689 0.002314016 0.0017845802 -0.0007084579 0.0008394458 0.005512149 0.0028676074 0.0045330846 -0.00032451798 0.0017552483 0.0006952625 -0.002054111 -0.0016449214 0.003646589 0.0065471865 0.0022843783 -0.003724645 -0.0076964754 0.005503561 -0.00442717 -0.00021632091 -0.00356914
may -0.018498993 -0.014491305 0.020017179 0.027209572 0.00263283 -0.018274914 0.0097147 0.0073629175 -0.020931767 -0.001076969 -0.023344845 -0.0008424061 0.012403765 0.025660796 -0.011739039 0.010901537 0.04986381 -0.016157638 -0.022197729 0.005826471 -0.039720457 -0.009311271 -0.0021541317 -0.012734427 -0.015736371 -0.007836999 -0.022249445 0.022549802 -0.003619846 -0.002809168 0.0006770181 -0.038992926 -0.007652443 0.013828891 0.009253518 0.050933238 0.017814985 0.01036271 0.0503793 -0.005003449 -0.0033071206 0.03559891 -0.008242978 0.014256276 0.010301158 0.016793089 -0.016414374 -0.00021012894 -0.04126145 0.011295249 -0.014970228 -0.008059772 0.011480856 -0.010213235 -9.544314e-06 -0.009937141 0.0049977293 -0.0105642555 -0.0022298594 0.025922632 0.003252469 -0.011577095 0.017745303 -0.01725151 0.00058990455 0.023464294 -0.0025469896 0.013979273 -0.011947428 -0.0135776885 -0.0008306076 -0.025653007 -0.0049751922 0.011906801 0.034222383 -0.019419814 -0.011215119 -0.025630131 -0.0029263124 0.008567911 0.04482983 0.014688583 0.0020542596 0.03708961 0.020551547 0.038880676 -0.0146492645 -0.014464363 -0.0026865848 0.004142855 -0.010816676 -0.013408438 0.024775673 -0.025145914 -0.01450194 -0.040094495 0.019969653 -0.009242521 -0.0012438102 0.007984928
see -0.0059262896 -0.005185476 0.008141718 0.011870597 -0.0017575828 -0.012150487 0.0033414725 0.0061496682 -0.013231621 -0.0035704721 -0.0118155535 0.0042865397 0.0022274093 0.010534225 -0.010143448 0.003647673 0.026747819 -0.008060253 -0.012336178 0.0039006476 -0.016359348 -0.0020160922 0.0010290769 -0.009873466 -0.0071127275 -0.00235566 -0.009921118 0.009304675 -0.0051408573 0.0042553283 0.003431765 -0.01883595 0.0027004029 0.008543384 0.005974071 0.026511738 0.007097495 0.005978959 0.02081796 -0.005759755 -0.004202993 0.018875752 0.00068484707 0.0022379304 0.0055443677 0.010136758 -0.0050547915 -0.00011887709 -0.02546344 0.0030558123 -0.008049223 -0.008019705 0.007967453 -0.0074228793 0.0027149445 -0.008984208 0.005681718 -0.0018357161 0.004124932 0.008489239 -5.968391e-05 -0.0039004837 0.0019389638 -0.0055145 0.00179429 0.011808851 -0.0064406255 0.010867608 0.0008039472 -0.001448771 0.0008745118 -0.013939281 -0.0046865297 0.0008086894 0.013634891 -0.008442576 -0.0054618847 -0.008931877 0.0036007506 -0.0010901918 0.018703459 0.011171884 0.002220304 0.021405153 0.010887587 0.021493278 -0.007231057 -0.013436286 -0.0029154792 0.007747798 -0.0024182482 -0.0032664675 0.0066751903 -0.0062047457 -0.0056942366 -0.019953365 0.004209964 -0.003567014 -0.0017336339 0.0023591323
shall -0.016429536 -0.014203947 0.017626066 0.021787327 -0.00011962674 -0.016712992 0.002146746 0.010065746 -0.01990794 -0.004009881 -0.0179222 0.006400764 0.015133765 0.023636855 -0.011752593 0.010790848 0.03869744 -0.010710746 -0.020058932 -0.000922116 -0.0406973 -0.008711846 0.0027814987 -0.018479556 -0.015471259 -0.008678219 -0.010894206 0.026541919 -0.0037809375 0.0019004578 -0.004278018 -0.039029032 -0.0026042508 0.0066984436 0.013677375 0.046331774 0.012705966 0.007337421 0.038931996 -0.003943446 0.0013675721 0.02866686 -0.010800715 0.013651531 0.004525141 0.018124176 -0.0065035075 -0.0053274264 -0.039387226 0.007976633 -0.012182782 -0.012520995 0.010007751 -0.015099632 0.0022121388 -0.011769466 0.00091262674 -0.005540136 0.0019906373 0.024186805 0.008052604 -0.0055877664 0.015469913 -0.014308038 0.00036335562 0.016626148 -0.0035738735 0.014513527 -0.009203698 -0.015065487 -0.0056856005 -0.017789612 -0.007899325 0.008067291 0.024819521 -0.013142683 -0.0135070365 -0.022216389 -0.0011565522 0.0020207993 0.034420125 0.014792133 0.0019228014 0.036396164 0.018487712 0.036587555 -0.0077927103 -0.012633303 -0.010471442 0.005372063 -0.0063314615 -0.010859989 0.023136964 -0.018930806 -0.017995961 -0.034154426 0.01404164 -0.007384738 0.0024244124 0.011203021
without -0.01362677 -0.01166785 0.013141938 0.011796606 -0.0008794139 -0.011926819 0.001505924 0.007911362 -0.011906406 -0.0016485163 -0.0063516563 -0.0029490346 0.0042133853 0.013490117 -0.0065243696 0.0060699913 0.02847778 -0.01071311 -0.009777996 0.0046584737 -0.02451143 -0.0040252963 -0.0006573102 -0.009884006 -0.0019835483 -0.0037825059 -0.011485628 0.017367074 -0.0007024731 -0.0034661843 -0.0017573927 -0.016996436 0.0009935824 0.0047210385 0.0040210965 0.027695235 0.0068670036 0.0027957107 0.022729449 -0.0033561834 -0.0045474195 0.012244717 -0.0020497902 0.00407545 0.0015599708 0.0063775876 -0.007819268 -0.0043292018 -0.022852635 -0.00026119416 -0.010842263 -0.005047055 0.0031470952 -0.011762042 0.0005532349 -0.008516255 0.0032350153 -0.0040349076 0.0038538398 0.013363077 0.0054956824 -0.0014136882 0.010298774 -0.014974177 -0.0017776736 0.014170328 -0.0044110767 0.009208107 -0.0036782937 -0.011267118 -0.006833901 -0.0094837295 -0.0072706663 0.006271241 0.021577794 -0.013625023 -0.008519987 -0.009596945 0.0008152516 0.00087623904 0.021423016 0.0064587398 0.0015394149 0.016388653 0.00889464 0.016270725 -0.0034354464 -0.005520937 -0.002110897 0.0066113607 -0.0026067037 -0.003233129 0.011311015 -0.012488603 -0.011527251 -0.020933924 0.010539633 -0.0017633965 -0.00037228575 0.001963938
first -0.0120442975 -0.00573876 0.015535569 0.01697833 -0.00078046205 -0.00628751 0.0036273578 0.0008344609 -0.017341346 -0.0017858414 -0.012293725 0.0062279454 0.0023739524 0.01700094 -0.008124646 0.009296672 0.030259302 -0.008671439 -0.0076419045 0.006373262 -0.019331688 -0.004119674 -0.0032416177 -0.010242378 -0.004669658 -0.00014191373 -0.006208862 0.019165292 -0.0014423401 -0.0055731833 -0.0007402235 -0.024794038 -0.0066967024 0.0034252387 0.0021706263 0.029492037 0.007519124 -0.00011803983 0.025187405 -0.0070720958 0.0020952914 0.017521732 -0.0070769545 0.0020591517 0.0057868715 0.0059054894 -0.005520129 0.0009993888 -0.026923466 -0.0008808427 -0.014630866 -0.0028393639 0.002700626 -0.012331185 0.0017459866 -0.009441268 0.0016990755 -0.0019069375 -0.00040169575 0.01787195 0.002880435 -0.000857774 0.0113764275 -0.0123152025 0.006310017 0.017320003 -0.0028358698 0.004669247 -0.0055840886 -0.0042234566 0.00036078418 -0.015228751 -0.009756747 0.0059231226 0.021789975 -0.008144394 -0.010794333 -0.013575246 0.002562411 0.0031107895 0.019099714 0.010530192 -0.0032757516 0.025323357 0.005839138 0.01903826 -0.002861015 -0.012454521 -0.0068923687 0.0044186646 -0.0022862449 -0.0077784928 0.013963104 -0.015078384 -0.013742042 -0.024145339 0.015683062 -0.010858495 0.0067059295 0.006288121
frank 0.00045287347 0.003601964 0.00021449111 0.0035325936 -0.0024951098 7.570448e-05 0.0012076881 0.004277857 0.002992064 5.0131785e-05 -0.0029503442 0.0044278074 -0.0032022672 -0.0011591369 -0.0014183173 -0.0027228382 0.0021860183 -0.0039550294 -0.00079887913 0.00041229493 0.002340765 -0.00010859163 7.297618e-05 0.0013915442 0.0026170935 0.0007969454 -0.0024285454 -0.0013247655 -0.0005842526 -0.0013617512 -0.0028644137 -0.0048726895 0.0014352432 0.0003922397 -0.003926503 0.001213587 -0.002017748 -0.00117849 0.006408961 0.00016726101 -0.0015180839 0.0021421004 0.0030009367 -0.0042600404 -0.0020467488 -0.0038782372 0.0028187493 0.004603021 -0.0026458967 0.0033495545 -0.0027422067 -0.0016510013 -0.0026734704 -0.0026816786 0.0020494368 0.00046023136 -0.0011554862 0.0046190186 -0.0008937901 0.0042912546 -0.0046800417 -0.004391935 4.363819e-05 -0.0024402605 0.0035522727 -0.0037354317 0.00078311766 0.005008014 -0.005340859 -0.0010583336 0.0039536245 0.0030233802 0.0028023235 -0.0014318128 0.0049174074 0.0024446924 -0.0049803723 -1.6742453e-05 0.0036734059 -0.002825998 0.0020466081 -0.0030080364 0.00025965364 0.0061446084 0.0013912894 -0.0009066269 0.00041055697 0.002460636 -0.0010830667 -0.0045174444 0.0010183898 0.0026823448 -0.0022933413 0.0011760576 -0.0055525955 -0.0046976623 0.00034577335 -0.0020502235 -0.0001214242 0.0022379404
father -0.014487566 -0.009566895 0.014918142 0.018746043 0.0048947106 -0.009548795 -0.0014826129 0.008951379 -0.01769561 -0.00096479256 -0.0082025165 0.0063408497 0.010318768 0.019050507 -0.0068653626 0.0061633806 0.033495076 -0.0069418894 -0.012086483 0.004530551 -0.025884245 -0.0013381336 -6.0695038e-05 -0.013579087 -0.0076874946 -0.008645546 -0.007099193 0.016875412 -0.005964485 0.0012806483 -0.0034671447 -0.02687517 -0.0061955126 0.010290692 0.0024174291 0.03204212 0.011686447 0.00813123 0.034158632 0.0007746277 -0.0045542996 0.02462438 -0.008866589 0.007812989 0.003375735 0.0150332395 -0.008912762 0.00028683693 -0.028257629 0.0034621672 -0.013682275 -0.00871557 0.0060919765 -0.010291704 0.0035804594 -0.011393084 0.00039517877 -0.0049039964 0.004517877 0.017647408 0.007291381 -0.0051159044 0.006882332 -0.012921752 0.002163727 0.016367426 -0.0059365844 0.014147055 -0.0025083928 -0.010731014 -0.006219866 -0.013634326 -0.0076565063 0.004000188 0.019304566 -0.013128646 -0.0059637385 -0.009466158 0.0009148042 0.008591074 0.023481064 0.01173478 0.0015895023 0.019424835 0.011852146 0.018140873 -0.0052603474 -0.009505894 -0.0049386392 0.0038552016 -0.000570356 -0.009874058 0.018044928 -0.009111203 -0.008338858 -0.027405292 0.011211274 -0.010492522 -0.001253251 0.008406939
sure -0.018968126 -0.014635857 0.016116366 0.014821554 0.0029128608 -0.014725868 0.006341713 0.002169622 -0.017145593 -0.004113253 -0.016582005 0.006442185 0.0045309123 0.01678932 -0.012288023 0.0037609788 0.034442246 -0.011820366 -0.014726234 0.0032771998 -0.032683518 -0.0018387246 0.0044392603 -0.0107209245 -0.014460779 -0.007308525 -0.008713891 0.020700436 -0.0030914044 0.00038768226 0.0002675074 -0.028418455 -0.0073158084 0.006693878 0.00895756 0.039783224 0.008410963 0.0063770246 0.038465578 -0.008754388 -0.0040170536 0.021441283 -0.0011470339 0.0045295507 0.0036248018 0.009918703 -0.008815397 0.004302683 -0.030417364 0.0019832037 -0.014482572 -0.005806958 0.003684748 -0.012029348 1.8059567e-05 -0.0139677925 -0.0014961422 -0.0032826962 -0.0008297026 0.018167172 0.004561746 -0.00048628927 0.011919736 -0.014164293 0.0054348446 0.014539792 -0.007977006 0.012134319 -0.00488419 -0.011510571 -0.0008633248 -0.01282576 -0.00580969 0.002899274 0.019044833 -0.014101023 -0.009553347 -0.02082259 -0.0070563727 0.004983342 0.025650885 0.010496153 0.0028814606 0.032542776 0.007658433 0.029201835 -0.005799247 -0.011362429 -0.008030065 0.0024321957 -0.009649003 -0.0052925977 0.012888294 -0.017603135 -0.012549844 -0.028024647 0.016917255 -0.00480069 0.0025767426 0.009618635
indeed -0.012675834 -0.0060573355 0.008192589 0.016204473 0.003558033 -0.00971828 0.004858671 0.0036780064 -0.015756091 0.003308918 -0.01478019 0.0013453484 0.00874151 0.014321197 -0.00614778 0.01040343 0.031563543 -0.006596402 -0.008253491 0.0012938253 -0.029636657 -0.0014157692 0.005409621 -0.00990701 -0.008763608 -0.005809531 -0.009542052 0.018597268 -0.0069611096 0.00078740396 0.0040483717 -0.020708079 0.0013140703 0.0062099006 0.011534076 0.03546297 0.010196688 0.008925106 0.033384066 -0.003414526 0.0015644945 0.023742998 -0.005141783 0.003226301 0.006858541 0.013708691 -0.008896675 0.0019600142 -0.03151708 0.0060932906 -0.015740028 -0.007444959 0.0012654541 -0.012860083 -0.003548248 -0.0029179775 0.007068706 -0.0037717735 -1.8437819e-05 0.01978963 -0.00048291835 -0.0039026265 0.012350585 -0.010275486 0.0045761163 0.013602528 -0.0038668003 0.009920077 -0.0035925598 -0.0052561867 0.0009167011 -0.01186176 -0.00066661084 0.008177521 0.023340857 -0.010499907 -0.0077999607 -0.010862105 -0.005399685 -0.0006191694 0.027742192 0.0054115416 -0.0035425723 0.019703282 0.014042357 0.01823777 -0.0040318626 -0.014161539 -0.0017227533 0.0014959043 -0.00057694834 -0.005832761 0.017285397 -0.009834947 -0.0066925813 -0.024919573 0.012811328 -0.004607873 0.0036574767 0.006490581
like -0.010729511 -0.010825965 0.01705533 0.0121990265 0.005038119 -0.0078113214 0.0064160447 0.0071473187 -0.01506933 -0.0004424932 -0.008116087 -0.0019065281 0.008441141 0.011435728 -0.011305917 0.0016883839 0.02784846 -0.013923937 -0.015980525 0.0019440125 -0.022632472 -0.008199682 0.0015743503 -0.010278171 -0.010996531 -0.0046855933 -0.008209896 0.013588035 -0.003983276 -0.0011956425 0.0005793617 -0.020597853 -0.0026284307 0.0052496744 0.0038604063 0.027123185 0.004649984 0.0019115004 0.025645263 -0.0067285807 0.0002566029 0.017514093 -0.00062803255 0.008128041 0.00052044063 0.012219378 -0.011225017 -0.0032095518 -0.025476355 0.003140057 -0.008413735 -0.011799322 0.0068812026 -0.010863799 -0.0012577554 -0.004179527 0.0065647657 -0.00848394 0.004310418 0.019952124 0.0072282986 -0.00085484824 0.0069177723 -0.0153979985 -0.00090159825 0.00892433 -0.0028030863 0.014284945 -0.0074276566 -0.007936912 -0.0002963283 -0.016943313 -0.007947112 0.009966919 0.02341051 -0.009268296 -0.0024193206 -0.014017415 -0.0066839103 0.004036533 0.026883012 0.00852939 0.0014863813 0.026146399 0.008248661 0.019503372 -0.0029479847 -0.012981942 -0.0027944974 0.0010283373 -0.0050145043 -0.008901106 0.008711014 -0.015698174 -0.006186691 -0.019254299 0.014376503 -0.0045517813 0.0019040193 0.007836632
made -0.022397244 -0.00932078 0.017186616 0.020839218 0.005217989 -0.008950069 0.003691351 0.009638162 -0.025977785 -0.0039205314 -0.014341888 0.003170571 0.008169783 0.026022365 -0.011544887 0.0071782363 0.034177046 -0.0125747565 -0.019330382 0.0020204291 -0.035545476 -0.0031271244 0.0053739906 -0.01251198 -0.011170352 -0.0019069883 -0.010995883 0.024023658 -0.00620982 -0.0051290183 -0.002967284 -0.030687813 0.0009986105 0.010289705 0.008339976 0.041178033 0.0086986 0.007808445 0.042121287 -0.00069902994 -0.0047813156 0.022415739 -0.009934623 0.010138747 0.0043793614 0.011567649 -0.0068243584 -0.0022669097 -0.03663198 0.007444445 -0.015505414 -0.007389495 0.0034446162 -0.016248526 0.0024354507 -0.0068232655 0.006500054 -0.008043794 0.002707343 0.019134609 0.0026807077 -0.011269404 0.014116084 -0.017287666 0.007279252 0.014828123 -0.0031152396 0.017167348 -0.0074876132 -0.0138672395 -0.007726131 -0.016160788 -0.011497946 0.011786008 0.03035831 -0.011063871 -0.008946737 -0.015372011 0.0011808064 9.619773e-05 0.039512698 0.014351075 0.00029864677 0.033006024 0.011509821 0.025812525 -0.011920947 -0.015657762 -0.006120264 0.008787137 -0.002891878 -0.004794169 0.021738693 -0.022997104 -0.016212935 -0.02898509 0.013671489 -0.011152321 0.007594629 0.007831544
body -0.019853981 -0.009544128 0.020051511 0.011539863 0.0014413792 -0.006686949 0.0063418616 0.011055307 -0.022047965 0.0023761927 -0.01934698 0.0044844965 0.012667797 0.014704471 -0.007972815 0.011648857 0.035118096 -0.009774501 -0.014631304 0.0071579255 -0.033542115 -0.00053178414 0.0042231926 -0.0084719425 -0.012074774 -0.00523873 -0.012639739 0.014652904 -0.0073993006 -0.0030121983 0.003346474 -0.025782857 -0.0029405523 0.008625868 0.0072783707 0.03751532 0.008662843 0.006346075 0.036426812 -0.003412534 0.003300209 0.027566489 -0.0077705504 0.0070638726 0.009435503 0.013772029 -0.012080201 -0.00013113277 -0.027566185 2.068474e-05 -0.008903125 -0.0059681414 0.005473356 -0.006521813 -0.0007795339 -0.010810334 0.0045760674 -0.0029773244 -0.002567908 0.021366585 -0.00026395282 -0.0029694447 0.009041987 -0.01747452 0.007081039 0.020069167 -0.0018703756 0.008779919 -0.005132645 -0.0032451046 -0.00025138646 -0.020156637 -0.008084008 0.0055685504 0.028213697 -0.017590798 -0.010263728 -0.020484012 -0.0038446405 0.0006252053 0.02905431 0.009649016 0.00429167 0.03166527 0.012049662 0.022029072 -0.002364514 -0.014852248 -0.0038309442 0.004597346 -0.0023062842 -0.007147088 0.012429316 -0.01686457 -0.010194459 -0.030749993 0.014156966 -0.008155747 -0.00094559026 0.0042041545
ever -0.01916529 -0.013360954 0.021019109 0.021565918 0.0019455648 -0.016783547 0.00586536 0.014169935 -0.024887208 -0.004898715 -0.027595997 0.0076489234 0.015995542 0.032231506 -0.016790861 0.010578762 0.053654402 -0.015722254 -0.0230535 0.006059802 -0.045820326 -0.009963977 0.0016547383 -0.015172873 -0.012418293 -0.009227036 -0.018446233 0.02267499 -0.0041453345 0.00039194358 0.0027567253 -0.047351133 -0.0017973671 0.013749416 0.008783377 0.055231065 0.013138615 0.013446564 0.050523564 -0.0011221468 0.0024401562 0.03339123 -0.007895236 0.013710502 0.0064319316 0.018515654 -0.013519345 -0.0032097646 -0.049407415 0.00441515 -0.017721858 -0.015415895 0.013016179 -0.018438872 -0.0010914542 -0.008415038 0.006802596 -0.003217073 0.0065768273 0.03437523 0.0029331942 -0.00979775 0.018844612 -0.019632371 0.00050847745 0.026349125 -0.004794402 0.014013227 -0.0058772215 -0.009178638 -0.003655228 -0.024461519 -0.01362137 0.010384629 0.03432758 -0.022192312 -0.007853737 -0.022858586 -0.0023238014 0.0058167703 0.049851324 0.010313813 0.0015135392 0.036270857 0.016760228 0.03831616 -0.0071094465 -0.021148022 -0.009444883 0.008928981 -0.006595383 -0.011468197 0.019984415 -0.019173216 -0.02124945 -0.03914727 0.025835954 -0.00789075 0.0025082265 0.0117154755
oh -0.017972017 -0.0074091577 0.017316554 0.01929887 -0.00028070356 -0.005354624 -0.0013950658 0.003927604 -0.016493697 -0.002324095 -0.016346317 -0.0014445654 0.012418937 0.02205212 -0.011625406 0.0040965155 0.028025122 -0.009100905 -0.0075067934 0.0019821816 -0.028181551 -0.0069423458 0.004083224 -0.008510768 -0.007886762 -0.0014079245 -0.006940604 0.016043535 -0.0020167234 0.0033403172 0.0034560638 -0.026953595 -0.0010316346 0.009472426 0.0027359184 0.028838044 0.012023782 0.0050453655 0.031956356 0.0003253827 -0.0006114245 0.017006112 -0.002881843 0.0109929 0.0021999879 0.01147213 -0.007740355 -0.005217164 -0.033686362 0.0062469053 -0.01555179 -0.0068186373 0.008397798 -0.008999552 0.0009484234 -0.0057154857 0.004378027 -0.0010174089 0.0034837315 0.017880177 0.0023410602 -0.008345314 0.012672764 -0.015691178 -0.0020358562 0.014807648 -0.007611405 0.00655026 -0.003161217 -0.010721684 -0.0007017325 -0.009786007 -0.004384693 0.00999968 0.025349025 -0.012057278 -0.010030161 -0.017062131 -0.005568759 0.002218647 0.025774604 0.0045855646 -0.0023197238 0.027816366 0.015728984 0.021900369 -0.0045011104 -0.010112628 -0.0074822004 0.007626649 -0.00088795804 -0.0011538884 0.009349594 -0.019310735 -0.013810746 -0.02666369 0.013750189 -0.003370544 0.006541568 0.0038254363
day -0.0115573 -0.008164079 0.005714275 0.009069986 -0.0027528997 -0.002899016 0.0020666325 0.0056732493 -0.0062869345 0.00064788916 -0.008379706 0.003292386 0.007508093 0.0074606542 -0.010148483 0.0060491073 0.021289473 -0.002337532 -0.0086588105 0.0060983165 -0.01907625 -0.0030129442 0.003924851 -0.0076854625 -0.0069898623 -0.00042257775 -0.0089772055 0.005671299 -0.0064878515 -0.0011609545 0.00409804 -0.014668005 -0.0043611075 0.007679543 0.0057437853 0.024307627 0.0047568674 0.007613635 0.022221247 -0.0052194246 0.0010906456 0.01730553 -0.0035850543 0.00038654025 0.00087853055 0.008657746 -0.008394654 0.001026141 -0.022001224 0.004207154 -0.0067067984 -0.009276941 0.0008780108 -0.003309358 0.00028256635 -0.008727941 0.0064962376 -0.007286256 0.0028558022 0.015807204 0.004509708 -0.007214663 0.0017963983 -0.011440535 0.0040125297 0.00875851 -0.003312907 0.007956594 -0.0051422296 -0.0009919915 -0.0065174093 -0.012777426 -0.006851814 0.0071299127 0.016936446 -0.010040014 -0.003362545 -0.009543338 0.0018969806 0.0023575732 0.017570272 0.0038227278 0.0030286568 0.014552553 0.002196328 0.018894503 -0.00021264215 -0.009882494 -0.006129274 0.0036787982 -0.005230522 -0.0038451417 0.006987699 -0.013427704 -0.0054733003 -0.019840222 0.003020117 -0.0005903502 0.0031312006 0.005800697
young -0.022936381 -0.017563092 0.01737804 0.022708079 0.0076067527 -0.017729728 0.0045953896 0.00919249 -0.026650036 0.0018917329 -0.021262355 0.0043646884 0.009296806 0.026159631 -0.015182227 0.009682241 0.039428573 -0.013839555 -0.014773798 0.0033426383 -0.037746284 -0.0047282553 -0.0045251856 -0.021303276 -0.01388339 -0.0080160545 -0.019385828 0.024256498 -0.005558732 -0.0066437307 0.003679258 -0.038777836 -0.0010012842 0.013763717 0.008556764 0.043636244 0.007933048 0.007770399 0.044589262 -0.0054830895 0.0018739423 0.031323977 -0.0016562687 0.01301207 0.011368437 0.011409073 -0.011519802 0.00052037666 -0.04077782 0.002551468 -0.019415654 -0.008461411 0.009669489 -0.015396183 4.7487993e-05 -0.015693486 0.0058655296 -0.010792204 0.00069701695 0.027496614 0.009832684 -0.0054126903 0.00814057 -0.015692066 0.0018524177 0.021948215 -0.0057340134 0.0128167 -0.011048035 -0.011807641 -0.003148911 -0.015632438 -0.0126457475 0.013440855 0.027356291 -0.015777316 -0.008557101 -0.022119367 -0.004625446 0.0051098317 0.0322737 0.008769382 0.00030248213 0.033164274 0.009560583 0.035034277 -0.009521402 -0.016327877 -0.007977824 0.0046815556 -0.004697458 -0.007088864 0.023893327 -0.015045675 -0.009948821 -0.039441016 0.017819779 -0.012791864 0.0063420604 0.005053943
two -0.009708537 -0.010459206 0.016858514 0.012642115 0.005557185 -0.010259086 0.0034637905 0.0020781881 -0.01968844 0.0023949845 -0.017343504 -0.00206244 0.00367148 0.019145453 -0.003738086 0.008998151 0.027311176 -0.015063339 -0.0148036 -0.0002573611 -0.023602348 -0.0027594562 0.0026630878 -0.011040497 -0.004476061 -0.0016237405 -0.015388455 0.020019071 -0.0031965107 -0.0033132432 -0.0041847616 -0.030162327 -0.0041353833 0.0065963967 0.009689339 0.035988748 0.013716059 0.0041986355 0.032455727 -0.0017085255 -0.0021519454 0.024030158 -0.004686023 0.003157855 0.009596829 0.0136566125 -0.0122881485 -0.004795128 -0.029881787 0.008877519 -0.011158274 -0.004034706 0.00068062847 -0.0064194934 -0.0023932485 -0.011057593 0.0030984117 -0.008534841 -0.0038952408 0.019190246 0.0012691675 -0.008164155 0.012291493 -0.011002364 0.0007496691 0.010720309 -0.00078592065 0.007822588 -0.008741857 -0.0032634845 -0.002653887 -0.018108107 -0.008573274 0.0059614107 0.025084026 -0.016595846 -0.0040666587 -0.009913889 -0.004397803 0.0054232883 0.026297608 0.010066125 -0.0008524269 0.024709223 0.012480168 0.025293611 -0.005214392 -0.0068695387 -0.006085575 0.008252012 -0.0062444713 -0.0034313693 0.015231356 -0.0122469235 -0.00990276 -0.02901908 0.010223648 -0.0058638947 0.005705415 0.00423808
friend -0.02083443 -0.01718302 0.021522516 0.020915154 0.006111814 -0.015011903 0.00036524094 0.01052899 -0.019380607 -0.004958792 -0.022341639 0.0068108723 0.0067497455 0.026186867 -0.0093868915 0.010835276 0.04613056 -0.018287783 -0.021693401 0.0013389849 -0.041323043 -0.0008179963 -0.0027882908 -0.01551332 -0.0084708305 -0.0067701284 -0.016987039 0.022938374 -0.0019728746 -0.002594345 0.002775363 -0.038466513 0.0007388689 0.011955884 0.0128384335 0.051602572 0.018484961 0.0033007807 0.04190102 -0.008127163 0.00048711943 0.028377678 -0.0104290955 0.012796723 0.009842927 0.01947464 -0.013668706 0.0025146375 -0.041224346 0.0047368193 -0.0184202 -0.015938297 0.010757953 -0.010983278 -0.0027877123 -0.00979903 0.0012612361 -0.00596302 -0.001655321 0.021540102 0.003902197 -0.0029900419 0.011321402 -0.021147847 0.0077088648 0.024188993 -0.009416777 0.011701809 -0.007773653 -0.008779122 -0.0074741486 -0.02395276 -0.0065363618 0.007831766 0.036031976 -0.017110014 -0.012975834 -0.01799188 -0.0067738364 0.009851254 0.03927877 0.014312162 0.0047028884 0.036485948 0.018408401 0.03891651 -0.014492168 -0.015518482 -0.0037336277 0.0033937432 -0.006896008 -0.008877419 0.017675126 -0.015243071 -0.013912579 -0.037071116 0.013107802 -0.0059884563 0.00666354 0.012079222
though -0.019600019 -0.008312461 0.01877424 0.021172922 0.0065441784 -0.012012421 0.0043724976 0.006087199 -0.02080777 -0.0026896596 -0.017412791 0.00095443905 0.008974885 0.018585939 -0.012117436 0.0071196523 0.034792606 -0.011692204 -0.009078765 0.0015930098 -0.035587847 -0.00341618 0.0011333278 -0.012975118 -0.0129658915 -0.0041649193 -0.017282281 0.022993878 -0.0003991346 -0.0007629083 0.0038724556 -0.03615767 -0.0061700675 0.013420018 0.012967072 0.040340077 0.01254653 0.0070656864 0.042027522 -0.009299447 0.0003961973 0.027638894 -0.006614483 0.0057238564 0.0037298135 0.01715361 -0.008208778 -0.002309244 -0.036705595 0.00887022 -0.014410503 -0.012656708 0.009000336 -0.008278929 -0.0039815805 -0.0070335716 0.006749479 -0.0064720004 0.0015481833 0.017306607 0.0021065597 -0.00856411 0.008148115 -0.012211735 0.0019806349 0.020216879 -0.0032713206 0.013967434 -0.008001428 -0.011849412 0.0009864934 -0.019653143 -0.0021269675 0.00554712 0.030839382 -0.01572912 -0.004704631 -0.021846281 -0.004370076 0.002021741 0.033879306 0.008772313 -0.0029248456 0.026250143 0.017526891 0.030181073 -0.006023259 -0.016794449 -0.010028731 0.010534171 -0.009703462 -0.008621852 0.01565044 -0.017260592 -0.015952267 -0.03443975 0.017893787 -0.004175269 -0.0018126504 0.005959606
better -0.011900253 -0.011275696 0.013224409 0.013181787 0.0052635036 -0.010073399 0.0052735005 0.0058855843 -0.021138502 0.0033017497 -0.015308536 0.0049717287 0.0093416795 0.0119770635 -0.0075302958 0.003066424 0.03404398 -0.009951539 -0.010164329 -0.0024799185 -0.021550223 -0.0073866546 -0.0018163368 -0.0129462285 -0.008854219 -0.004822223 -0.008138056 0.011206382 -0.0051964745 0.0007136157 -0.0010922502 -0.026656289 -0.0050522457 0.010788746 0.0059485515 0.027588377 0.0052136853 0.0053953943 0.0299212 -0.0057604276 -0.0045326687 0.01958117 -0.009818253 0.0036859342 0.007453723 0.016306235 -0.003985721 -0.0050415928 -0.026204253 0.00022870333 -0.0097334 -0.008329733 0.0017749855 -0.012507448 -0.0057748253 -0.012535494 0.0034430462 0.00024686713 -0.0012590358 0.018756257 0.007888441 -0.0011369124 0.00860766 -0.014961107 -0.0018355802 0.018760363 0.00041871148 0.013292192 -0.005642948 -0.008628091 -0.0034935786 -0.017098749 -0.0025834013 0.01037157 0.025823716 -0.010157514 -0.0041181236 -0.009228414 -0.0042992765 0.0011500146 0.03060077 0.012595278 0.003332386 0.028106214 0.010442844 0.023993613 -0.006001626 -0.014332077 -0.0027340895 0.003698517 -0.001340909 -0.009602217 0.008577347 -0.008830933 -0.008017999 -0.029603856 0.010577578 -0.0076000066 0.004294031 0.00457659
come -0.0071179424 -0.010615572 0.005011885 0.010435416 -0.0003167083 -0.0048650955 0.0007115597 0.00420584 -0.014970592 0.002512915 -0.005881783 0.0027113233 0.0022684527 0.006382181 -0.009881235 0.006952444 0.023486122 -0.006172094 -0.00873666 0.0053333133 -0.016306866 -0.0038636492 0.0044002426 -0.009891485 -0.0067327586 0.00042813143 -0.011808112 0.005360692 -0.003930191 -0.0019444119 -0.0028714181 -0.022031238 -0.0026976943 0.0040340563 0.00913288 0.0237853 0.0026656576 0.0001195303 0.018410336 0.0005444646 -0.003328263 0.016009212 -0.007924367 0.0059432616 0.005652506 0.009935243 -0.0002586992 -0.004965872 -0.017981302 0.00020919862 -0.006473283 -0.01021219 0.0074412324 -0.008715278 -0.0001714469 -0.0072990526 -0.00015950925 -0.0007935554 0.0015105522 0.0080781495 0.0026037828 -0.005012809 0.0040690056 -0.0041073766 -0.0010749088 0.012418405 -0.006138446 0.0058444515 -0.006733542 -0.007016847 0.0010754095 -0.005539936 -0.0075755888 0.007017915 0.01303311 -0.008341412 -0.0008485535 -0.009018961 0.00046075435 -0.0009099557 0.013177871 0.0045252233 0.00011836729 0.018608691 0.006987272 0.014417361 -0.0025355234 -0.0020612306 0.0004958823 0.004890056 -0.005679943 -0.0038595009 0.0060475087 -0.0097818645 -0.003947888 -0.016134534 0.0037651672 -0.0062589776 0.0028405567 0.0026290645
hartfield -0.01312316 -0.008820335 0.014967084 0.018740827 0.0015401312 -0.0121476455 0.00039755448 0.0019603064 -0.013042886 -0.003569659 -0.018636739 -0.00016319218 0.0059927483 0.019096565 -0.011293854 0.005002003 0.027109325 -0.0074097207 -0.015493109 0.0064758975 -0.025097344 -0.0044843922 -0.0004385768 -0.013749879 -0.00917254 -0.008496563 -0.015508936 0.020682044 -0.004522049 -0.0027561404 0.0017969351 -0.024575923 -0.0022179938 0.0051862667 0.00741196 0.03465087 0.008836399 0.004339076 0.028457047 -0.007579461 0.0009777965 0.023974832 -0.0072294115 0.009995305 0.000948865 0.012176395 -0.008016141 0.004475624 -0.033300646 0.0068042427 -0.007528363 -0.011830433 0.0075439643 -0.010138671 -0.0037859753 -0.011365608 0.0061177714 -0.009141534 0.0056106485 0.020279303 -6.1280625e-05 -0.0073164348 0.011732034 -0.010975639 0.0031775082 0.009710905 -0.005132975 0.011051976 -0.008700085 -0.004428299 -0.0049102055 -0.012951681 -0.0062517095 0.009755203 0.021348823 -0.011614559 -0.007750353 -0.01713825 -0.001202734 0.004885366 0.025296701 0.004176592 -0.0030476954 0.021866906 0.012433763 0.025939615 -0.0030462707 -0.010270659 -0.0015776908 0.0039955853 -0.006438072 -0.009302596 0.016810883 -0.018106515 -0.007661163 -0.022816505 0.014111349 -0.002695453 0.0049927426 0.008885602
give -0.013742997 -0.009083228 0.012148454 0.021670146 -0.00031472216 -0.01654903 0.0019392197 0.011951886 -0.020283738 -0.004242476 -0.0140443565 0.0062221047 0.010264898 0.020884404 -0.0066886353 0.010217568 0.035291072 -0.011420435 -0.016545001 0.00017747853 -0.031077 -0.005478519 0.0035575451 -0.012758229 -0.007742787 -0.0044412133 -0.014391065 0.018509127 -0.0065550236 0.0020752277 0.0019627512 -0.0356492 -0.004836312 0.012397708 0.011806968 0.03612054 0.0067624925 0.0023817345 0.03587174 -0.00067056814 -0.0015169055 0.02904163 -0.0070497924 0.012334817 0.0054120347 0.015826197 -0.007873342 -0.002856265 -0.035901025 0.0030670208 -0.019156488 -0.004863436 0.0024477954 -0.0067012957 -0.0047690747 -0.006257946 0.004999945 -0.0025188115 0.0011833556 0.026041685 0.0071655046 -0.007713168 0.009999694 -0.018877896 -0.0015350333 0.019463124 -0.0026250398 0.016027479 -0.011193331 -0.0071450425 -0.00034914192 -0.02059815 -0.0027881172 0.009282289 0.022498893 -0.015050936 -0.009068518 -0.01968332 -0.0018276232 0.00013704726 0.031464998 0.014620393 -0.0032552367 0.02428335 0.010099653 0.026309699 -0.009070808 -0.011203401 -0.0038306091 0.0016093417 -0.005909082 -0.006406895 0.018901652 -0.016849965 -0.009682547 -0.02761712 0.017183429 -0.006477439 0.002504801 0.008876122
upon -0.013099929 -0.0051182914 0.006942863 0.009575572 -8.4567015e-05 -0.008151316 0.0019857986 0.0046397955 -0.014063126 0.0011555088 -0.011130333 -0.0034782798 0.002121167 0.016366212 -0.010125843 0.007719451 0.026049899 -0.011626678 -0.0067853397 0.0021629483 -0.023786815 -0.00012094935 -0.0025168257 -0.007183064 -0.01096555 -0.0075387205 -0.004355799 0.007865533 -0.005590498 0.0037283527 -0.0046939915 -0.015823055 0.002656765 0.006196138 0.0056524626 0.026092384 0.0030569255 0.0061831507 0.019866958 -0.0033297294 -0.005558484 0.01915611 -0.0026408504 0.003908454 0.0027479914 0.0060532223 -0.0056740246 0.0030011327 -0.01910356 0.004555989 -0.006874738 -0.0060385284 0.0012471636 -0.0022137433 0.002438613 -0.0042479103 0.0038239097 -0.0050433544 0.0010642972 0.0089573935 0.0059331567 -0.005923803 0.009680958 -0.0050140247 0.0057088695 0.012437355 -0.00017953513 0.0101297945 -0.00865176 -0.002022346 -0.0043561454 -0.013039858 -0.0073261433 0.007542119 0.015335958 -0.013436413 -0.006465736 -0.01286448 -0.006159613 0.0022652713 0.019495428 0.008612057 0.0032073914 0.01997546 0.011737819 0.014010969 -0.0043445225 -0.005409188 0.0014017029 0.0024541775 -0.00045903385 8.498098e-05 0.010866242 -0.005255148 -0.006981433 -0.020766178 0.01315701 -0.005495579 -0.00095118664 0.002376111
way -0.016799161 -0.0067311884 0.009491834 0.016722513 0.0025047616 -0.010061793 0.0009860588 0.00055691676 -0.018300997 -0.002883103 -0.0133516155 0.0064992774 0.006454925 0.013619927 -0.0043054586 0.0037161119 0.024670532 -0.007457396 -0.00783631 0.0022479207 -0.024990287 -0.007675558 0.0010629469 -0.014490526 -0.012011853 -0.004092393 -0.0107395975 0.016973048 -0.0043393336 0.0014857558 0.00095109997 -0.02479151 -0.006303672 0.008079378 0.0037497666 0.027482497 0.012402575 0.002938144 0.032909736 -0.0006701435 -0.0044381316 0.02143362 -0.0009101782 0.00912609 0.0003748911 0.010413848 -0.006843087 0.0007463948 -0.027359447 0.009125659 -0.015131103 -0.0073106284 0.0036353383 -0.011043412 -0.0010377787 -0.012332603 -0.00020702937 -0.0054911226 -0.0040825466 0.017460136 0.0043513407 -0.004291482 0.0065567517 -0.010689831 -0.0006835223 0.013413104 -0.0069874013 0.0068787113 -0.003287854 -0.007893325 0.0016179619 -0.013459438 -0.0073083 0.00840643 0.01903588 -0.01588716 -0.0026688674 -0.015282379 0.0025493694 0.0050177434 0.026146876 0.010672152 -0.002595736 0.018941434 0.009839979 0.02454317 -0.0056243553 -0.007855257 -0.0020860033 0.00026818988 0.00016053418 -3.0672214e-05 0.012934349 -0.011295498 -0.009394102 -0.026064236 0.016056933 -0.005306144 -0.0016083944 0.0013573642
really -0.009179657 -0.00987533 0.015389859 0.0082522 1.3975602e-05 -0.0085876435 -0.0009225921 0.0020277211 -0.01600036 0.0014535411 -0.01582824 0.00067482924 0.008972263 0.01699519 -0.004005171 0.0008607107 0.021324158 -0.005348402 -0.005586635 0.0037569841 -0.024076741 -0.007963029 -0.0014578194 -0.0043101506 -0.0034100418 -0.0026388569 -0.007268788 0.016502723 0.00050992897 0.003465084 0.00017839781 -0.023637807 -0.005313283 0.0045173336 0.007486969 0.02804129 0.0062796567 0.008057585 0.021106545 -0.0034418148 0.0041728336 0.0129389055 2.5242145e-05 0.002030588 0.00054746476 0.004880425 -0.009819682 0.0033197377 -0.022427548 -0.0004348036 -0.0064742165 -0.0035077385 0.0031053955 -0.008987263 0.0026499957 -0.008673863 0.0044307364 -0.0036562674 0.0041593527 0.018750213 0.00073084 -0.00018597195 0.007826175 -0.012271941 1.1382857e-05 0.015598929 -0.008114192 0.013146461 -0.00027502488 -0.006398445 -0.007107829 -0.008136548 -0.0076913587 0.0056362706 0.017799733 -0.012148463 -0.005864538 -0.0149704935 -0.0030471704 0.006328502 0.024318099 0.007652722 0.002602565 0.020697404 0.005190207 0.023737019 -0.0045189187 -0.008610979 -0.005154841 0.00749356 -0.0017536037 -0.005132867 0.008801011 -0.010925989 -0.013069707 -0.018431256 0.010221246 -0.0022465114 0.0043184767 0.0022321153
make -0.0076653073 -0.0044980673 0.014800362 0.018305745 0.0032209316 -0.005872481 -0.00073666894 0.009084587 -0.017604137 0.0004892768 -0.014003801 0.002815139 0.005277605 0.013480979 -0.0102934325 0.0077330936 0.031398676 -0.009524477 -0.007735563 0.001601341 -0.025571942 0.00031871462 0.00448556 -0.010390769 -0.012383287 -0.00024225915 -0.014583235 0.013095712 0.00050661695 0.0038782677 0.0037820528 -0.024361255 0.0024194962 0.009867935 0.006389491 0.032579627 0.01223232 0.00801059 0.022372302 0.00092676777 -0.0003632043 0.016804574 -0.007267151 0.0016905472 -0.00023530933 0.008524889 -0.0102695 -0.0034221166 -0.026112663 0.0021990188 -0.01521126 -0.008045453 0.0060052914 -0.010052439 -0.0062073446 -0.011297792 0.0021829368 0.0005924122 -0.0015432072 0.016307026 0.0008012308 -0.0047266586 0.0037761496 -0.007841636 -0.0021703513 0.01451779 -0.0072634076 0.012768531 -0.0069952733 -0.010907201 -0.00588813 -0.012247176 -0.0045188535 0.005353248 0.014531037 -0.005948935 -0.0030703582 -0.009182386 -0.0010815819 0.007417071 0.02692281 0.008650655 0.0016422197 0.024845783 0.012990704 0.024676925 -0.0069325524 -0.012793756 -0.0067982264 0.0066554877 -0.0076441793 -0.0022217266 0.009154965 -0.015196866 -0.005444298 -0.027158542 0.015844032 -0.009998141 0.0030781792 0.002449593
us -0.0122242635 -0.011873887 0.011226803 0.01587852 0.0016390872 -0.01224406 7.023481e-05 0.0027328832 -0.0124062635 0.0032284223 -0.014244302 0.00682449 0.0056274757 0.018223658 -0.004002667 0.0019802048 0.029325284 -0.008415493 -0.010937934 0.00067331764 -0.022884171 0.00036263553 0.0047807433 -0.0066766567 -0.0065580294 -0.008519041 -0.004836594 0.011494981 -0.003225059 -0.005423955 0.0032054267 -0.026855867 -0.006329956 0.0038037868 0.0067616985 0.029391127 0.0055188183 0.004223982 0.023088042 0.0005131058 0.0006291656 0.019987818 -0.008457914 0.007850536 0.0075240657 0.008076862 -0.008623005 -0.0045648483 -0.022411015 0.003340937 -0.006123575 -0.011434824 0.0027424807 -0.011614482 -0.00038323598 -0.00401148 -0.0022074133 0.00024487817 -0.0036217738 0.01778395 0.005406323 -0.003616719 0.007977743 -0.006229864 0.0047523985 0.012444673 -0.0059668366 0.005997506 -0.0034797713 -0.009055747 -0.0034620583 -0.010258939 -0.0040586586 0.0013648025 0.021317245 -0.008679041 -0.0054744147 -0.016538575 -0.00058518146 0.00020029278 0.02039771 0.009987434 -0.0007669092 0.020307364 0.008213331 0.022691412 -0.0015554215 -0.00855995 -0.006970286 0.0046485136 -0.0028241347 -0.006284748 0.006501964 -0.010402482 -0.00920299 -0.020608885 0.014432088 -0.009366139 0.0007910601 0.0072057093
bates -0.007588844 -0.0032824876 0.0013810996 0.005791979 0.0007455486 -9.007176e-05 0.0023622985 0.0040918244 -0.0028191311 -0.00054554845 6.50873e-05 0.004873121 0.003852859 0.0043943487 -0.005496136 0.0033357772 0.0052821366 -0.008052844 -0.0062194127 0.0040481887 -0.01259847 -0.002046509 -0.0018819122 -0.0010319359 -0.003930369 -0.002564332 -0.0059427093 0.0003318143 -0.0018223154 0.00090195396 -0.00036126957 -0.010806809 -0.0005131281 0.0013056524 -5.357924e-05 0.00951923 0.0009802788 0.00455055 0.011354909 -0.0037935786 -0.0035331035 0.009098277 -0.0043754224 0.0029189843 0.0063578174 -0.00086787285 0.0021863095 0.004119228 -0.005326557 0.0009920541 -0.0022946005 -0.005919362 0.002181674 -0.00079841964 0.00047135772 0.0009815734 -0.0023676606 -0.0027749615 0.0048059807 0.001182554 0.005042799 0.0026880899 -0.00047374863 -0.00802995 0.00083449227 0.0022941635 -0.0025014135 0.0018460709 -0.0034039447 0.0022720976 -0.005172621 -0.00013640794 -0.0057444456 0.0005336268 0.00770857 -0.0037641989 -0.0038465774 -0.005624774 0.0036068787 -0.0037729878 0.005084753 0.0033289972 0.0032151649 0.008244384 -0.00058334094 0.011159549 0.0013158396 -0.004864325 0.002442805 -0.0012705864 0.0010374117 -0.0053155017 0.006989013 -0.0069347527 -0.004695052 -0.009845689 0.005383002 0.0013354522 0.0029073674 0.006627022
long -0.014216877 -0.013048675 0.0078231795 0.009548155 -0.0019594869 -0.01127309 0.000946693 0.0046235714 -0.018353505 -0.0010572744 -0.015648741 0.0036436375 0.001004356 0.010079009 -0.0024271926 0.00847349 0.026371533 -0.007814847 -0.012325419 0.0007510057 -0.021500815 -0.0069983504 0.0017534795 -0.014156012 -0.007430781 -0.003346096 -0.014130176 0.013714451 -0.006694868 0.0027054767 0.0006675798 -0.017911403 -0.00028872982 0.0108904345 0.0051806597 0.025443668 0.0039335936 0.00987628 0.025133122 0.00082201447 -0.0026532568 0.014989674 -0.0035541165 0.008453947 0.0038901868 0.012617543 -0.010096922 -0.0031157862 -0.020805545 0.0029702615 -0.014164451 -0.007560509 0.0074447007 -0.010027349 -0.0042577097 -0.00827134 -0.00241659 -0.0016683019 -0.0016803528 0.011045965 -0.0023074166 -0.0021501016 0.0110937515 -0.009216721 0.0028863822 0.016350294 -0.00396379 0.0093156 -0.007938836 -0.0062844134 -0.0014553878 -0.006560524 -0.0024860983 0.009823207 0.015390531 -0.012526241 -0.010096173 -0.010882188 -0.00041200838 -0.0010898096 0.018635638 0.011540896 0.0045094187 0.020417688 0.0050649657 0.018481756 -0.005571675 -0.011377084 -0.0032286623 0.00679961 -0.0087585 -0.008760723 0.011459091 -0.011743887 -0.0073824227 -0.022427538 0.010638806 -0.005690096 -0.0020042178 0.0019257375
rather -0.0102568865 -0.011044012 0.013177915 0.015111807 0.0036581068 -0.012532342 0.0031875244 0.007566353 -0.018463666 0.00051791116 -0.010664948 0.0051344167 0.00067098456 0.013078454 -0.0019349076 0.005160726 0.020480052 -0.011361625 -0.006272869 -0.0028781707 -0.021650398 0.0011751945 -0.0026350303 -0.009766773 -0.011530184 -0.0073595103 -0.004407518 0.009567085 -0.002735862 -0.002968487 0.003916291 -0.018177647 -0.0018405683 0.008006388 0.0016258388 0.028686577 0.011061144 0.0009072132 0.023419036 0.0016213494 -0.003645858 0.019604564 -0.007658679 0.0052630557 0.0013485439 0.005115703 -0.008547995 0.001465526 -0.027468447 0.0008453917 -0.01307463 -0.008271266 0.0006344316 -0.008481192 -0.004308723 -0.0033754727 0.0013946212 -0.0021007594 0.0030239387 0.014642545 0.007641485 -0.00642719 0.0036875794 -0.007713274 -0.0017289382 0.010511942 -0.0060830745 0.0077907424 -6.0771683e-05 -0.0013887405 -0.00087836006 -0.009595493 -0.0012524502 0.007471995 0.020174563 -0.0100858 -0.010048525 -0.008122698 -0.0060175206 0.0038296797 0.025082724 0.011756996 0.0049361526 0.022774028 0.0068234075 0.020074468 -0.007997106 -0.0097054895 0.001118816 0.004207427 -0.0069139884 -0.0070577753 0.011687362 -0.010318864 -0.0055316053 -0.016426437 0.010625268 -0.0017423274 0.005679314 -4.817998e-06
hope -0.008714193 -0.00927766 0.012003892 0.006357943 0.0056083025 -0.010672875 -0.0004251623 -0.0007415736 -0.0071079396 -0.0027306608 -0.010387199 0.00541212 0.00855305 0.0070217345 -0.006581817 0.0036700817 0.019266743 -0.0031434442 -0.01086707 0.004552253 -0.020877933 -0.006161792 0.0023163967 -0.003928237 -0.006620017 -0.0016891626 -0.0035390886 0.009902867 -0.0018861406 -0.0016838743 0.0006843459 -0.020136412 -0.001412037 0.002294625 0.0049067615 0.02172537 0.008520928 0.0012964978 0.015850158 -0.004243167 -0.00027944424 0.01205026 -0.0075131636 0.0063843704 0.004054441 0.006122774 -0.0090869125 -0.002626606 -0.018115578 -0.0010558758 -0.010316382 -0.00064301636 0.0076839253 -0.0027281705 -0.0034130898 -0.00046386098 0.00014290112 0.0009859549 0.000686621 0.016167896 -0.0019149054 -0.007438963 0.0074148276 -0.003607409 -0.0017277556 0.0053946623 -0.0063080685 0.010992209 -0.00277046 -0.007919399 -0.005082791 -0.012593896 -0.008110171 0.0044752806 0.009251773 -0.00459151 -0.006645965 -0.0073004146 0.001478982 0.005918492 0.013430064 0.0033524886 0.005533279 0.016830372 0.008890049 0.010792028 -0.0025180278 -0.004342145 -0.0018783062 0.0012587783 -0.0036692265 -0.0073303315 0.008221117 -0.0066962293 -0.007804719 -0.01611949 0.0037801152 -0.005567445 -0.0008860847 0.006850291
done -0.010496714 -0.0042620623 0.009611117 0.0075312858 0.005179641 -0.0027305468 0.00034978654 0.008644782 -0.0078952005 -0.0034277618 -0.00757995 0.0025808753 0.0058836024 0.012960667 -0.0056245555 0.007435042 0.019126927 -0.008090956 -0.012168832 0.0003061638 -0.01938258 5.7889865e-06 0.001987819 -0.0034321062 -0.0054751607 0.0011048857 -0.011287633 0.007415155 -0.004092375 0.0035300378 -0.000745609 -0.019481089 -0.003057741 0.0069524213 0.0029864882 0.02512942 0.011059017 0.00028009093 0.02459866 -0.004868997 0.002599646 0.018551525 -0.0017284004 8.5951426e-05 0.0016014383 0.0103956545 -0.0003414433 -0.004638916 -0.022406649 -0.0014421828 -0.011965166 -0.0051073567 0.0011263912 -0.0066306717 0.0019929032 -0.003147142 -0.0002255563 0.0008809636 -0.004274811 0.01339566 -0.00053398684 -0.001629754 0.008467772 -0.012781781 -0.0014127382 0.0068600606 -0.0030681612 0.0041339137 -0.0047926763 -0.00586338 -0.0045776353 -0.0068931575 0.00096917374 0.008524959 0.016548606 -0.008307243 -0.0056674923 -0.0061394684 -0.00270809 0.004164286 0.018539019 0.008336276 0.0040469468 0.012981957 0.004444001 0.014962557 -0.0054996475 -0.012184995 -0.0012324568 -0.00014891555 -0.0045001693 -0.001893659 0.013114091 -0.011652752 -0.010984277 -0.015373266 0.011193671 -0.0025737092 0.002783347 0.0054334365
seemed 7.908315e-05 0.00030839664 0.0055188043 0.0052783703 -0.003353715 -0.00032651707 -0.0029333613 -0.0016727614 -0.003136686 0.0018683951 0.0006623568 -0.00033439993 -0.00292924 0.004103552 0.001541566 0.0004671552 0.006100323 -0.0065299934 0.00066434743 0.003487785 -0.008959574 0.0035191549 0.0050274306 -0.005942893 -0.0028497607 0.00019418012 0.0003746347 0.008045564 -0.0022025863 -0.0013399648 -0.0034438588 -0.004085742 0.00178023 0.0045211357 -0.0029404624 0.0026680103 -0.0015252582 0.00333238 0.007223387 -0.004983392 -0.0001184274 0.005859635 -0.0020664283 0.004986162 0.0015810976 0.0031500782 -0.0054535777 0.0048494264 -0.0046102796 -0.0009847648 -0.00037231948 -0.0044308314 0.0017906786 0.0004320379 0.0031202182 0.0020951016 0.00087812805 0.0016180343 0.00046474946 -0.0010229334 -0.0016396093 -0.00095750764 0.0056006378 0.0002955227 0.0025112308 0.003825894 0.00039717305 0.0015014473 0.003216054 0.0022744162 0.003365069 0.001653668 0.0035683333 0.006374785 -0.00030770875 -0.0071905274 -0.0034849902 0.00010219602 -0.0053084875 0.0011878422 0.005977682 0.00028017303 -0.0016678609 0.008470678 0.0057269046 0.0077429614 -0.00052071136 -0.0063645537 -4.174451e-05 -0.0035934856 0.002398216 -0.0005377238 -0.001279203 -0.0072246003 -0.0029904584 -0.006407715 0.00073947205 -0.0055796453 0.005370714 0.002728689
away -0.008593152 -0.0070183314 0.010364281 0.008117548 0.006651572 -0.012339861 0.0008131811 0.0056380183 -0.012216506 -0.003381199 -0.008492114 0.0025519887 0.0029915418 0.018107034 -0.002251557 0.004915141 0.026247917 -0.0099590225 -0.0068884287 0.0036463053 -0.02016156 -0.0013332397 -0.004142888 -0.0067584254 -0.010249613 -0.0021390817 -0.008067577 0.01790637 0.002993303 -0.0018586036 0.0022406487 -0.026796 -0.006304384 0.0071042874 0.0043221116 0.026773542 0.010371088 0.0012045758 0.028704796 -0.007029432 0.002288296 0.022556195 -0.00880224 0.00697282 0.0049900524 0.005473383 -0.01052189 -0.0010278043 -0.026579145 0.002832581 -0.0133117065 -0.007573865 0.008009017 -0.009965944 -0.0031881104 -0.0021812152 0.002985931 -0.0072544185 0.0048244414 0.01640627 0.00017134048 -0.0039731255 0.011398109 -0.009862645 -0.00017852889 0.0131049445 0.00059935154 0.0074841483 -0.0033562868 -0.008047248 -0.004403115 -0.010857911 -0.001585999 0.009792976 0.017039469 -0.014555668 -0.007906881 -0.010365534 -0.0042399103 -0.0011451306 0.02048357 0.0023916517 -0.0021330477 0.025165781 0.011496367 0.023190849 -0.005156702 -0.010636502 -0.0054600136 0.0055205403 -0.0017554783 -0.0056924694 0.010757295 -0.015720058 -0.0052844444 -0.016824728 0.009655856 -0.006652759 -0.0016763546 0.0073559824
many -0.0053896564 -0.01100645 0.0116188545 0.013725852 -0.002223191 -0.009109086 0.0014995527 0.00881619 -0.013461034 0.0007552551 -0.009857499 0.0019543127 0.0039458466 0.010613312 -0.0019789143 0.006575683 0.018084874 -0.0045079603 -0.011473618 0.00067400077 -0.01770419 -0.0024175895 -0.0005718812 -0.009564099 -0.009968477 -0.00066353433 -0.008986912 0.014327139 -0.0018807345 -0.0055252453 0.0018014873 -0.022329155 -0.0062088612 0.0037038988 0.00040213345 0.021142818 0.0035177954 0.0025737698 0.017544426 -0.0017362313 -0.0049952227 0.016161758 -0.0012048505 0.004768465 0.006066501 0.010879404 -0.010099014 -0.0027682206 -0.022625985 0.0017000342 -0.0054654065 -0.0042217853 0.003959155 -0.010830229 0.0010709158 -0.01054914 0.0027745664 -0.003614457 -0.0031690865 0.012304544 -0.0021187402 -0.0074187825 0.0019507882 -0.007218953 0.0045622922 0.008262014 -0.0036402533 0.011391094 -0.007919175 -0.010184744 -0.00025026058 -0.005225086 -0.0053804275 0.003946204 0.011138149 -0.011979096 -0.009977777 -0.012016322 -0.004446765 -0.00126985 0.014830389 0.0061186827 -0.00028505173 0.017001962 0.007618262 0.017756285 -0.005949172 -0.0035126074 -0.0052509303 0.0053392807 -0.0017410627 -0.0025388647 0.013177966 -0.008054908 -0.0034786945 -0.013268466 0.0033524397 -0.0061935806 0.0010096485 0.0059363437
wish -0.0067831404 -0.0053166784 0.0119820405 0.007924768 -0.0015000075 -0.0075199036 0.0035990323 0.001335889 -0.0049795904 -0.0007503685 -0.009911868 0.0015421625 -0.00010969411 0.013533183 -0.006430295 0.0044745677 0.019696064 -0.0045548202 -0.007223685 -0.0022259885 -0.013817306 -0.006246256 0.0010004253 -0.0057837414 -0.0019616357 -0.002376961 -0.006678188 0.0043583955 -0.001402303 0.0018915288 0.00031519198 -0.009289757 -0.0011538804 0.0020809425 0.0044853087 0.020418722 0.006866875 -0.0013024498 0.01514389 -0.004829768 0.00037227472 0.011609155 -0.0034255323 0.0067174844 -0.00016890306 0.0043393425 -0.005882878 -0.002015925 -0.014408441 0.004061127 -0.002479856 -0.006988582 0.0074364906 -0.0047869254 0.0021428876 0.0004146506 0.0053703506 -0.0033087642 0.002310803 0.005130814 -0.0009912582 0.0018332545 0.008734593 -0.01016053 -0.00056228944 0.008871047 -0.0066819442 0.0074376175 -0.0038882252 -0.0053676283 -0.004312864 -0.0064781383 -0.0020459595 0.007662892 0.016251504 -0.0077708624 -0.0043295627 -0.007320653 -0.005400297 0.0066972836 0.011863999 0.006944346 0.0038443834 0.008343034 0.008001567 0.014900532 -0.005575554 -0.0012766196 0.00019837175 -0.0009520338 -0.004285245 0.00020525603 0.006746209 -0.0053058225 -0.0016026989 -0.016414225 0.003322093 -0.0007015715 -0.002506471 0.0034087787
poor -0.016375797 -0.0124180475 0.012108678 0.009206493 -0.000606046 -0.008237642 -0.0022545091 0.0067032105 -0.014146914 -0.0011380423 -0.01089095 0.0051488196 0.007894656 0.018690713 -0.0037551424 0.007911836 0.02812033 -0.005536459 -0.007213769 0.002773431 -0.017338278 -0.00850027 -0.0038735794 -0.014280503 -0.004273731 -0.0063417456 -0.010604883 0.0142235365 -0.0054993075 0.0042873574 -0.00043917698 -0.025669169 -0.0046851104 0.00965335 0.0055346075 0.029464852 0.010875251 0.009531527 0.024149772 -0.0068547046 -0.005260659 0.015927613 -0.0066258484 0.005125174 0.0053952667 0.009883213 -0.0078097824 0.0038042287 -0.026601704 0.0044185743 -0.015182474 -0.0021108498 0.0068585835 -0.0056046946 -0.00434771 -0.00748979 0.0037101188 -0.0027795827 0.0042040767 0.0115202805 0.0066804616 -0.004437667 0.009578945 -0.0086868545 0.0027384157 0.016511973 -0.0016453291 0.010503228 -0.0019368717 -0.004591392 -0.00081982696 -0.009933187 -0.009568302 0.0075241216 0.014960375 -0.01327913 -0.004945439 -0.011656549 -0.0048970366 -0.0001855463 0.027770484 0.005881574 -0.0012250526 0.017486235 0.014078923 0.023010794 -0.00057264406 -0.009577114 0.00023327471 0.008509784 0.00043778672 -0.008511474 0.016733393 -0.014555706 -0.0076434747 -0.025307568 0.01214833 -0.009979241 0.005518091 0.003070672
home -0.008360413 0.0015234447 0.005134838 0.0011704366 -0.0015009203 -0.007471966 0.005542191 0.0012498825 -0.004746282 -0.0010990135 -0.008064867 0.0029698692 -0.0003354868 0.0065265247 -0.0037550896 0.0069954847 0.014430016 0.0012679092 -0.0020370686 0.0038477213 -0.0037908196 0.0030258098 -0.002444979 -0.003810507 -0.006453512 -0.002214983 -0.00084931246 0.0008686944 -0.0049305684 -7.634381e-05 0.004910759 -0.0046376395 0.0036262942 0.005613455 0.0048737274 0.014312127 0.005768682 0.0048688296 0.009677607 0.0016653142 -0.001793331 0.011218794 0.00022251563 0.004328962 0.0017445235 0.007360048 -0.0020735806 0.0040361835 -0.009530021 -0.00044157708 -0.0022520241 -0.0025733376 0.0029874158 -0.0051035914 0.00041230928 -0.006439922 -0.002478161 -0.0044340612 -0.00047038414 0.0008353361 -0.0014884934 0.0025274414 -0.0020854292 -0.0061115464 0.0026732197 0.005766294 0.0004364772 0.0034854745 -0.002173959 -0.0026182523 -0.0031163301 -0.0033967015 0.00022169304 0.001213802 0.0045234626 -0.008905594 -0.0061024125 -0.009163109 0.0043027457 -0.0024555153 0.011145984 0.006726935 0.00046441614 0.008628388 0.006241246 0.0069917752 0.0010836612 -0.0076551554 -0.0016083808 0.0040030936 -0.0053727175 -0.0036429232 0.0044414205 -0.009106833 -0.007967709 -0.012180262 0.0021767232 -0.0025824008 -0.0025589634 -0.0015517581
woman -0.023643352 -0.010461683 0.024154147 0.022037195 0.0053334865 -0.014912006 0.00461014 0.013472519 -0.026225088 0.0013785649 -0.01912349 0.0033681619 0.011882888 0.02507508 -0.012545115 0.013577096 0.046947706 -0.012615535 -0.020179015 0.0017262432 -0.03988501 -0.002734654 -0.0017337163 -0.015040913 -0.00806418 -0.0026780355 -0.019692097 0.023727885 -0.0034441026 -0.001018162 0.0035032814 -0.03743913 -0.0071906536 0.013510649 0.007683333 0.051376775 0.011351963 0.010503456 0.04767124 -0.004472971 -0.0022914438 0.026764045 -0.010704662 0.013485923 0.00837997 0.013177612 -0.013746142 0.002420921 -0.042267606 0.009777293 -0.022286527 -0.01704437 0.011151362 -0.0143985385 -0.0037195787 -0.009656052 0.00871207 -0.00836992 -0.00079504773 0.03181337 0.00838231 -0.008391416 0.009347512 -0.023960598 0.007403689 0.024581453 -0.009995973 0.01231681 -0.009456066 -0.009183258 -0.0057217744 -0.024402551 -0.005782377 0.010264754 0.037391596 -0.022444295 -0.010096095 -0.023594592 -0.001127764 0.008788658 0.04365565 0.011994294 -0.0029797144 0.04238337 0.014214508 0.040480807 -0.007382454 -0.01558078 -0.0066132573 0.0071111824 -0.010066047 -0.0054284236 0.015784359 -0.022761147 -0.01411083 -0.037779808 0.018592274 -0.0054362873 0.008569144 0.012241227
